{"learner":{"attributes":{},"feature_names":["total_bids","bid_amount_min","bid_amount_max","bid_amount_mean","bid_amount_median","bid_amount_std","bid_amount_range","bid_amount_q25","bid_amount_q75","first_bid_amount","last_bid_amount","second_bid_amount","third_bid_amount","bid_increment_mean","bid_increment_median","bid_increment_max","bid_increment_std","proxy_bid_count","manual_bid_count","proxy_bid_ratio","bidding_duration_hours","bids_per_hour","early_bid_mean","early_bid_growth","late_bid_mean","late_bid_growth","bid_velocity","momentum_last_5","momentum_last_10"],"feature_types":["int","float","float","float","float","float","float","float","float","float","float","float","float","float","float","float","float","int","int","float","float","float","float","float","float","float","float","float","float"],"gradient_booster":{"model":{"cats":{"enc":[],"feature_segments":[],"sorted_idx":[]},"gbtree_model_param":{"num_parallel_tree":"1","num_trees":"500"},"iteration_indptr":[0,1,2,3,4,5,6,7,8,9,10,11,12,13,14,15,16,17,18,19,20,21,22,23,24,25,26,27,28,29,30,31,32,33,34,35,36,37,38,39,40,41,42,43,44,45,46,47,48,49,50,51,52,53,54,55,56,57,58,59,60,61,62,63,64,65,66,67,68,69,70,71,72,73,74,75,76,77,78,79,80,81,82,83,84,85,86,87,88,89,90,91,92,93,94,95,96,97,98,99,100,101,102,103,104,105,106,107,108,109,110,111,112,113,114,115,116,117,118,119,120,121,122,123,124,125,126,127,128,129,130,131,132,133,134,135,136,137,138,139,140,141,142,143,144,145,146,147,148,149,150,151,152,153,154,155,156,157,158,159,160,161,162,163,164,165,166,167,168,169,170,171,172,173,174,175,176,177,178,179,180,181,182,183,184,185,186,187,188,189,190,191,192,193,194,195,196,197,198,199,200,201,202,203,204,205,206,207,208,209,210,211,212,213,214,215,216,217,218,219,220,221,222,223,224,225,226,227,228,229,230,231,232,233,234,235,236,237,238,239,240,241,242,243,244,245,246,247,248,249,250,251,252,253,254,255,256,257,258,259,260,261,262,263,264,265,266,267,268,269,270,271,272,273,274,275,276,277,278,279,280,281,282,283,284,285,286,287,288,289,290,291,292,293,294,295,296,297,298,299,300,301,302,303,304,305,306,307,308,309,310,311,312,313,314,315,316,317,318,319,320,321,322,323,324,325,326,327,328,329,330,331,332,333,334,335,336,337,338,339,340,341,342,343,344,345,346,347,348,349,350,351,352,353,354,355,356,357,358,359,360,361,362,363,364,365,366,367,368,369,370,371,372,373,374,375,376,377,378,379,380,381,382,383,384,385,386,387,388,389,390,391,392,393,394,395,396,397,398,399,400,401,402,403,404,405,406,407,408,409,410,411,412,413,414,415,416,417,418,419,420,421,422,423,424,425,426,427,428,429,430,431,432,433,434,435,436,437,438,439,440,441,442,443,444,445,446,447,448,449,450,451,452,453,454,455,456,457,458,459,460,461,462,463,464,465,466,467,468,469,470,471,472,473,474,475,476,477,478,479,480,481,482,483,484,485,486,487,488,489,490,491,492,493,494,495,496,497,498,499,500],"tree_info":[0,0,0,0,0,0,0,0,0,0,0,0,0,0,0,0,0,0,0,0,0,0,0,0,0,0,0,0,0,0,0,0,0,0,0,0,0,0,0,0,0,0,0,0,0,0,0,0,0,0,0,0,0,0,0,0,0,0,0,0,0,0,0,0,0,0,0,0,0,0,0,0,0,0,0,0,0,0,0,0,0,0,0,0,0,0,0,0,0,0,0,0,0,0,0,0,0,0,0,0,0,0,0,0,0,0,0,0,0,0,0,0,0,0,0,0,0,0,0,0,0,0,0,0,0,0,0,0,0,0,0,0,0,0,0,0,0,0,0,0,0,0,0,0,0,0,0,0,0,0,0,0,0,0,0,0,0,0,0,0,0,0,0,0,0,0,0,0,0,0,0,0,0,0,0,0,0,0,0,0,0,0,0,0,0,0,0,0,0,0,0,0,0,0,0,0,0,0,0,0,0,0,0,0,0,0,0,0,0,0,0,0,0,0,0,0,0,0,0,0,0,0,0,0,0,0,0,0,0,0,0,0,0,0,0,0,0,0,0,0,0,0,0,0,0,0,0,0,0,0,0,0,0,0,0,0,0,0,0,0,0,0,0,0,0,0,0,0,0,0,0,0,0,0,0,0,0,0,0,0,0,0,0,0,0,0,0,0,0,0,0,0,0,0,0,0,0,0,0,0,0,0,0,0,0,0,0,0,0,0,0,0,0,0,0,0,0,0,0,0,0,0,0,0,0,0,0,0,0,0,0,0,0,0,0,0,0,0,0,0,0,0,0,0,0,0,0,0,0,0,0,0,0,0,0,0,0,0,0,0,0,0,0,0,0,0,0,0,0,0,0,0,0,0,0,0,0,0,0,0,0,0,0,0,0,0,0,0,0,0,0,0,0,0,0,0,0,0,0,0,0,0,0,0,0,0,0,0,0,0,0,0,0,0,0,0,0,0,0,0,0,0,0,0,0,0,0,0,0,0,0,0,0,0,0,0,0,0,0,0,0,0,0,0,0,0,0,0,0,0,0,0,0,0,0,0,0,0,0,0,0,0,0,0,0,0,0,0,0,0,0,0,0,0,0,0,0,0,0,0,0,0,0,0,0,0,0,0,0,0,0,0,0,0,0,0,0,0,0,0],"trees":[{"base_weights":[-1.10463694E-1,-4.2138414E0,1.2209363E3,-1.2213117E1,2.0796594E2,1.0013155E3,2.8129436E3,-1.9265358E1,3.3998215E1,1.5436508E2,3.51352E2,7.325673E2,1.3415349E3,2.3080503E3,3.233699E2,-2.4474699E1,-6.7169876E0,2.1795221E1,6.470085E1,1.2538306E2,1.9884854E2,3.0137778E2,2.2381603E1,3.485644E1,4.1955456E1,1.0113787E3,1.6832324E3,1.2166976E3,1.4249034E2,-2.6749437E1,-2.0616043E1,-1.1105986E1,2.039423E-1,1.4504312E1,3.2152035E1,5.4703346E1,8.188714E1,1.1221845E2,1.4152673E2,1.8351768E2,1.1512696E1,1.3577171E1,1.6529528E1,3.5154358E1,1.1053127E3,5.909904E1,2.017145E3,3.753683E1,7.571914E1,-2.7776867E1,-2.518927E1,-2.2370464E1,-1.8635315E1,-1.3271486E1,-7.7025733E0,-2.6464891E0,3.8399792E0,1.1036466E1,1.941675E1,2.7481743E1,3.732387E1,4.8674294E1,6.1059128E1,3.7121656E0,8.9171684E1,1.0777139E2,6.151879E0,6.7526484E0,7.549263E0,8.567384E0,9.804241E0,3.355114E1,1.1441473E3,6.098768E1,1.05002014E2,-1.4050583E0,-1.3547773E0,-1.303783E0,-2.4604422E1,-1.153632E0,-2.1638483E1,-1.9578043E1,-1.7733341E1,-1.47479E1,-1.1733755E1,-8.846768E0,-6.294241E0,-4.061813E0,-9.4472545E-1,1.8101428E0,5.1838026E0,9.471981E0,1.3093625E1,1.766624E1,2.161102E1,2.6048868E1,1.517844E0,3.516148E1,2.0518742E0,2.3162487E0,2.5774543E0,2.828996E0,6.423671E1,4.2246566E0,4.6877913E0,5.0607243E0,5.5284214E0,4.0961548E1,6.1174923E1,-1.2539709E0,-1.2049623E0,-1.1042458E0,-1.0556098E0,-1.0032568E0,-9.523031E-1,-9.046116E-1,-8.105392E-1,-7.5466764E-1,-7.0608574E-1,-6.152741E-1,-5.5521196E-1,-4.6298692E-1,-4.042707E-1,-3.5215977E-1,-3.039623E-1,-2.5196406E-1,-1.7432593E-1,-7.05166E-2,-2.5530276E-3,4.7446396E-2,1.1943306E-1,2.1230984E-1,3.2104123E-1,4.3310285E-1,5.2258414E-1,6.187351E-1,6.9426614E-1,8.290701E-1,9.297995E-1,1.0613779E0,1.1428237E0,1.2035497E0,1.3257012E0,1.6472162E0,1.8190511E0,3.0815494E0,3.327606E0],"categories":[],"categories_nodes":[],"categories_segments":[],"categories_sizes":[],"default_left":[0,0,0,0,0,0,0,0,0,0,0,0,0,0,0,0,0,0,0,0,0,0,0,0,0,0,0,0,0,0,0,0,0,0,0,0,0,0,0,0,0,0,0,0,0,0,0,0,0,0,0,0,0,0,0,0,0,0,0,0,0,0,0,0,0,0,0,0,0,0,0,0,0,0,0,0,0,0,0,0,0,0,0,0,0,0,0,0,0,0,0,0,0,0,0,0,0,0,0,0,0,0,0,0,0,0,0,0,0,0,0,0,0,0,0,0,0,0,0,0,0,0,0,0,0,0,0,0,0,0,0,0,0,0,0,0,0,0,0,0,0,0,0,0,0,0,0],"id":0,"left_children":[1,3,5,7,9,11,13,15,17,19,21,23,25,27,-1,29,31,33,35,37,39,41,-1,-1,-1,43,45,47,-1,49,51,53,55,57,59,61,63,65,67,69,-1,-1,-1,-1,71,-1,73,-1,-1,75,77,79,81,83,85,87,89,91,93,95,97,99,101,-1,103,105,-1,-1,-1,-1,-1,-1,107,-1,-1,-1,-1,-1,109,-1,111,113,115,117,119,121,123,125,127,129,131,133,135,137,139,141,-1,143,-1,-1,-1,-1,145,-1,-1,-1,-1,-1,-1,-1,-1,-1,-1,-1,-1,-1,-1,-1,-1,-1,-1,-1,-1,-1,-1,-1,-1,-1,-1,-1,-1,-1,-1,-1,-1,-1,-1,-1,-1,-1,-1,-1,-1,-1,-1,-1,-1],"loss_changes":[6.7318445E8,2.2728078E8,1.5452E8,4.2054916E7,3.733624E7,3.5316096E7,8.470794E7,7.318388E6,6.400092E6,4.542744E6,6.23064E6,2.60624E5,1.7926912E7,2.5503344E7,0E0,6.93864E5,9.977016E5,9.22872E5,8.30382E5,4.40596E5,6.29836E5,6.71904E5,0E0,0E0,0E0,1.857968E6,1.167488E7,1.359644E6,0E0,7.9072E4,1.01557E5,1.48027E5,1.3212367E5,1.22064E5,1.209695E5,1.14849E5,9.2755E4,4.3875E4,3.8424E4,1.1059E5,0E0,0E0,0E0,0E0,3.7892E5,0E0,6.7704E5,0E0,0E0,5.862E3,9.603E3,7.492E3,1.13745E4,2.770825E4,1.2540781E4,1.720714E4,1.5270734E4,1.3423125E4,1.10185E4,1.0153875E4,1.7774E4,8.2935E3,1.7603E4,0E0,1.1556E4,4.377E3,0E0,0E0,0E0,0E0,0E0,0E0,5.702E5,0E0,0E0,0E0,0E0,0E0,2.253E3,0E0,1.32275E3,1.3585E3,3.56E3,1.138625E3,2.0280625E3,1.2788438E3,5.207344E2,2.1752422E3,1.3504299E3,1.1099438E3,3.8803125E3,1.8079688E3,8.591875E2,1.3594375E3,1.374375E2,9.9525E2,0E0,2.904625E3,0E0,0E0,0E0,0E0,1.11025E3,0E0,0E0,0E0,0E0,0E0,0E0,0E0,0E0,0E0,0E0,0E0,0E0,0E0,0E0,0E0,0E0,0E0,0E0,0E0,0E0,0E0,0E0,0E0,0E0,0E0,0E0,0E0,0E0,0E0,0E0,0E0,0E0,0E0,0E0,0E0,0E0,0E0,0E0,0E0,0E0,0E0,0E0,0E0,0E0],"parents":[2147483647,0,0,1,1,2,2,3,3,4,4,5,5,6,6,7,7,8,8,9,9,10,10,11,11,12,12,13,13,15,15,16,16,17,17,18,18,19,19,20,20,21,21,25,25,26,26,27,27,29,29,30,30,31,31,32,32,33,33,34,34,35,35,36,36,37,37,38,38,39,39,44,44,46,46,49,49,50,50,51,51,52,52,53,53,54,54,55,55,56,56,57,57,58,58,59,59,60,60,61,61,62,62,64,64,65,65,72,72,78,78,80,80,81,81,82,82,83,83,84,84,85,85,86,86,87,87,88,88,89,89,90,90,91,91,92,92,93,93,94,94,95,95,97,97,102,102],"right_children":[2,4,6,8,10,12,14,16,18,20,22,24,26,28,-1,30,32,34,36,38,40,42,-1,-1,-1,44,46,48,-1,50,52,54,56,58,60,62,64,66,68,70,-1,-1,-1,-1,72,-1,74,-1,-1,76,78,80,82,84,86,88,90,92,94,96,98,100,102,-1,104,106,-1,-1,-1,-1,-1,-1,108,-1,-1,-1,-1,-1,110,-1,112,114,116,118,120,122,124,126,128,130,132,134,136,138,140,142,-1,144,-1,-1,-1,-1,146,-1,-1,-1,-1,-1,-1,-1,-1,-1,-1,-1,-1,-1,-1,-1,-1,-1,-1,-1,-1,-1,-1,-1,-1,-1,-1,-1,-1,-1,-1,-1,-1,-1,-1,-1,-1,-1,-1,-1,-1,-1,-1,-1,-1],"split_conditions":[5.95E2,1.27E2,2.3E2,3.7E1,2.78E2,8E1,7.7E1,1.4E1,7.3E1,1.9E2,4.1E2,2.4E2,7.6E1,3.020017E-1,3.233699E2,5.5E0,2.4E1,5.3E1,1E2,1.6E2,2.42E2,3.25E2,2.2381603E1,3.485644E1,4.1955456E1,1.7146206E1,1.7146206E1,4.4E1,1.4249034E2,8.164966E-1,8.5E0,1.9E1,3E1,4.4E1,6.1E1,8.5E1,1.11E2,1.5E2,1.7277E2,2.11E2,1.1512696E1,1.3577171E1,1.6529528E1,3.5154358E1,3.9E1,5.909904E1,2.9727272E1,3.753683E1,7.571914E1,2E0,4E0,7E0,1.089E1,1.566E1,2.137E1,2.7E1,3.233E1,4.1E1,5E1,5.8E1,6.8E1,7.9E1,9E1,3.7121656E0,1.2E2,1.35E2,6.151879E0,6.7526484E0,7.549263E0,8.567384E0,9.804241E0,3.355114E1,2.3E2,6.098768E1,1.05002014E2,-1.4050583E0,-1.3547773E0,-1.303783E0,4.39E0,-1.153632E0,7.5E0,1E1,1.2E1,1.422E1,1.711E1,2.1E1,2.3E1,2.5E1,2.9E1,3.1E1,3.5E1,3.9E1,4.3E1,4.7E1,5.15E1,5.5E1,1.517844E0,6.5E1,2.0518742E0,2.3162487E0,2.5774543E0,2.828996E0,9.4E1,4.2246566E0,4.6877913E0,5.0607243E0,5.5284214E0,4.0961548E1,6.1174923E1,-1.2539709E0,-1.2049623E0,-1.1042458E0,-1.0556098E0,-1.0032568E0,-9.523031E-1,-9.046116E-1,-8.105392E-1,-7.5466764E-1,-7.0608574E-1,-6.152741E-1,-5.5521196E-1,-4.6298692E-1,-4.042707E-1,-3.5215977E-1,-3.039623E-1,-2.5196406E-1,-1.7432593E-1,-7.05166E-2,-2.5530276E-3,4.7446396E-2,1.1943306E-1,2.1230984E-1,3.2104123E-1,4.3310285E-1,5.2258414E-1,6.187351E-1,6.9426614E-1,8.290701E-1,9.297995E-1,1.0613779E0,1.1428237E0,1.2035497E0,1.3257012E0,1.6472162E0,1.8190511E0,3.0815494E0,3.327606E0],"split_indices":[2,2,15,2,2,27,18,2,2,2,2,25,0,21,0,24,2,2,2,2,2,2,0,0,0,16,16,0,0,5,2,2,2,2,2,2,2,2,2,2,0,0,0,0,0,0,22,0,0,0,2,2,2,2,2,2,2,2,2,2,2,2,2,0,2,2,0,0,0,0,0,0,4,0,0,0,0,0,2,0,2,2,2,2,2,2,2,2,2,2,2,2,2,2,2,2,0,2,0,0,0,0,2,0,0,0,0,0,0,0,0,0,0,0,0,0,0,0,0,0,0,0,0,0,0,0,0,0,0,0,0,0,0,0,0,0,0,0,0,0,0,0,0,0,0,0,0],"split_type":[0,0,0,0,0,0,0,0,0,0,0,0,0,0,0,0,0,0,0,0,0,0,0,0,0,0,0,0,0,0,0,0,0,0,0,0,0,0,0,0,0,0,0,0,0,0,0,0,0,0,0,0,0,0,0,0,0,0,0,0,0,0,0,0,0,0,0,0,0,0,0,0,0,0,0,0,0,0,0,0,0,0,0,0,0,0,0,0,0,0,0,0,0,0,0,0,0,0,0,0,0,0,0,0,0,0,0,0,0,0,0,0,0,0,0,0,0,0,0,0,0,0,0,0,0,0,0,0,0,0,0,0,0,0,0,0,0,0,0,0,0,0,0,0,0,0,0],"sum_hessian":[1.34355E5,1.33906E5,4.49E2,1.29042E5,4.864E3,3.96E2,5.3E1,1.11957E5,1.7085E4,3.542E3,1.322E3,2.23E2,1.73E2,4.8E1,5E0,7.9113E4,3.2844E4,1.2227E4,4.858E3,2.147E3,1.395E3,8.73E2,4.49E2,1.73E2,5E1,9E1,8.3E1,1.7E1,3.1E1,4.9768E4,2.9345E4,2.0098E4,1.2746E4,7.177E3,5.05E3,3.074E3,1.784E3,1.187E3,9.6E2,9.42E2,4.53E2,4.37E2,4.36E2,2.3E1,6.7E1,3.5E1,4.8E1,8E0,9E0,2.9997E4,1.9771E4,1.5556E4,1.3789E4,1.2281E4,7.817E3,7.145E3,5.601E3,4.209E3,2.968E3,2.657E3,2.393E3,1.582E3,1.492E3,8.76E2,9.08E2,8.49E2,3.38E2,5.79E2,3.81E2,4.86E2,4.56E2,7E0,6E1,6E0,4.2E1,2.0296E4,9.701E3,7.842E3,1.1929E4,7.924E3,7.632E3,6.732E3,7.057E3,6.261E3,6.02E3,4.31E3,3.507E3,3.9E3,3.245E3,2.232E3,3.369E3,2.394E3,1.815E3,1.656E3,1.312E3,1.78E3,8.77E2,1.519E3,8.74E2,8.8E2,7.02E2,6.27E2,8.65E2,4.59E2,4.49E2,2.65E2,5.84E2,1.4E1,4.6E1,6.123E3,5.806E3,4.107E3,3.525E3,3.495E3,3.237E3,5.702E3,1.355E3,4.02E3,2.241E3,3.145E3,2.875E3,2.787E3,1.523E3,7.75E2,2.732E3,1.442E3,2.458E3,2.133E3,1.112E3,8.98E2,1.334E3,1.919E3,1.45E3,1.316E3,1.078E3,9.6E2,8.55E2,7.73E2,8.83E2,1.017E3,2.95E2,3.49E2,1.431E3,5.49E2,9.7E2,4.2E2,4.45E2],"tree_param":{"num_deleted":"0","num_feature":"29","num_nodes":"147","size_leaf_vector":"1"}},{"base_weights":[1.5270287E-1,-3.775394E0,1.195085E3,-1.1510412E1,1.9915167E2,9.454731E2,2.9710823E3,-1.828231E1,3.240955E1,1.4665086E2,3.3587637E2,6.6641864E2,1.2031632E3,1.734371E3,4.4447017E3,-2.3291504E1,-6.4863214E0,2.077238E1,6.1438313E1,1.19202614E2,1.8879257E2,2.8641354E2,4.2659674E2,3.0431448E1,3.5389874E1,1.1144268E3,1.9106886E3,3.6608902E1,1.9961656E3,1.56303E2,5.3200015E3,-2.541209E1,-1.966303E1,-1.0657486E1,1.9407164E-1,1.3750132E1,3.0617498E1,5.1968327E1,7.784337E1,1.0663577E2,1.3436136E2,1.7437166E2,1.0927522E1,1.2864534E1,1.571897E1,1.9303734E1,4.3827396E2,9.6383307E2,1.4020586E3,5.1479847E1,1.1388423E2,4.021116E1,2.128142E3,1.1938903E2,2.9804398E2,-2.6387823E1,-2.3930676E1,-2.1244465E1,-1.7813915E1,-1.2690966E1,-7.308948E0,-2.511977E0,3.617967E0,1.0486796E1,1.8450436E1,2.6058102E1,3.548195E1,4.640215E1,5.8084953E1,3.5272477E0,8.487373E1,1.02205574E2,5.8496447E0,6.4134364E0,7.1639695E0,8.14685E0,9.30232E0,2.0529535E1,2.3339184E1,4.182944E1,1.1036272E3,1.1806752E3,9.088174E1,7.598096E1,1.22894554E2,-1.3348087E0,-1.2870543E0,-1.238572E0,-2.3373186E1,-1.0959227E0,-2.055688E1,-1.8668728E1,-1.7053217E1,-1.40708885E1,-1.1138291E1,-8.391612E0,-5.980272E0,-3.8704507E0,-9.1140634E-1,1.7301117E0,4.900385E0,9.008495E0,1.2434641E1,1.679664E1,2.0521517E1,2.4366718E1,2.825813E1,3.3387085E1,1.9495411E0,2.2036655E0,2.4490411E0,2.6877027E0,6.0999454E1,4.0116067E0,4.4549203E0,4.80512E0,5.2526703E0,3.6881207E1,1.159199E3,3.887346E1,6.493327E1,-1.1913017E0,-1.1447672E0,-1.0490761E0,-1.0027307E0,-9.563036E-1,-9.103951E-1,-8.6187E-1,-7.861224E-1,-7.196356E-1,-6.707675E-1,-5.839507E-1,-5.274252E-1,-4.398906E-1,-3.8401994E-1,-3.344576E-1,-2.8871712E-1,-2.196428E-1,-1.4408422E-1,-6.70964E-2,-2.2363325E-3,4.5100685E-2,1.1396264E-1,2.014819E-1,3.0504057E-1,4.1184267E-1,4.9575678E-1,5.863542E-1,6.596195E-1,7.8833497E-1,8.838734E-1,1.008478E0,1.085625E0,1.1428412E0,1.2412275E0,1.3506109E0,1.4676477E0,1.5645653E0,1.7287512E0,2.9267137E0,3.1620853E0,4.709997E1,6.677189E1],"categories":[],"categories_nodes":[],"categories_segments":[],"categories_sizes":[],"default_left":[0,0,0,0,0,0,0,0,0,0,0,0,0,0,0,0,0,0,0,0,0,0,0,0,0,0,0,0,0,0,0,0,0,0,0,0,0,0,0,0,0,0,0,0,0,0,0,0,0,0,0,0,0,0,0,0,0,0,0,0,0,0,0,0,0,0,0,0,0,0,0,0,0,0,0,0,0,0,0,0,0,0,0,0,0,0,0,0,0,0,0,0,0,0,0,0,0,0,0,0,0,0,0,0,0,0,0,0,0,0,0,0,0,0,0,0,0,0,0,0,0,0,0,0,0,0,0,0,0,0,0,0,0,0,0,0,0,0,0,0,0,0,0,0,0,0,0,0,0,0,0,0,0,0,0,0,0,0,0,0,0,0,0],"id":1,"left_children":[1,3,5,7,9,11,13,15,17,19,21,23,25,27,29,31,33,35,37,39,41,43,45,-1,-1,47,49,-1,51,-1,53,55,57,59,61,63,65,67,69,71,73,75,-1,-1,-1,-1,77,79,81,-1,-1,-1,83,-1,-1,85,87,89,91,93,95,97,99,101,103,105,107,109,111,-1,113,115,-1,-1,-1,-1,-1,-1,-1,-1,117,119,-1,-1,-1,-1,-1,-1,121,-1,123,125,127,129,131,133,135,137,139,141,143,145,147,149,151,153,155,157,-1,-1,-1,-1,159,-1,-1,-1,-1,-1,161,-1,-1,-1,-1,-1,-1,-1,-1,-1,-1,-1,-1,-1,-1,-1,-1,-1,-1,-1,-1,-1,-1,-1,-1,-1,-1,-1,-1,-1,-1,-1,-1,-1,-1,-1,-1,-1,-1,-1,-1,-1,-1,-1,-1],"loss_changes":[6.331902E8,2.1105195E8,1.9313363E8,3.852292E7,3.5389264E7,2.7170816E7,9.070243E7,6.630688E6,5.843884E6,4.105784E6,6.020832E6,2.104E4,1.0489824E7,6.671616E6,1.1069504E7,6.05584E5,9.3211575E5,8.53598E5,7.65108E5,3.97886E5,5.65212E5,6.43096E5,5.8312E4,0E0,0E0,6.488512E6,4.445072E6,0E0,2.063608E6,0E0,1.0195456E7,7.1218E4,8.4594E4,1.4012675E5,1.1915076E5,1.10426125E5,1.131135E5,1.04267E5,8.6869E4,4.253E4,3.4678E4,9.674E4,0E0,0E0,0E0,0E0,9.712E4,1.246664E6,3.37376E6,0E0,0E0,0E0,4.784E5,0E0,0E0,5.282E3,8.674E3,6.8015E3,8.393E3,2.7289125E4,1.1144281E4,1.561423E4,1.3734984E4,1.21496875E4,9.7694375E3,9.196875E3,1.695725E4,7.74075E3,1.5555E4,0E0,1.0816E4,4.485E3,0E0,0E0,0E0,0E0,0E0,0E0,0E0,0E0,2.63432E5,9.88248E5,0E0,0E0,0E0,0E0,0E0,0E0,2.0235E3,0E0,1.23175E3,9.7575E2,1.4665E3,1.234375E3,1.7985E3,1.169E3,4.7076562E2,1.9933594E3,1.2307385E3,1.042624E3,3.5074062E3,1.6130469E3,8.26625E2,1.2130312E3,1.056875E2,4.716875E2,7.686875E2,2.802875E3,0E0,0E0,0E0,0E0,1.178E3,0E0,0E0,0E0,0E0,0E0,5.02616E5,0E0,0E0,0E0,0E0,0E0,0E0,0E0,0E0,0E0,0E0,0E0,0E0,0E0,0E0,0E0,0E0,0E0,0E0,0E0,0E0,0E0,0E0,0E0,0E0,0E0,0E0,0E0,0E0,0E0,0E0,0E0,0E0,0E0,0E0,0E0,0E0,0E0,0E0,0E0,0E0,0E0,0E0,0E0,0E0],"parents":[2147483647,0,0,1,1,2,2,3,3,4,4,5,5,6,6,7,7,8,8,9,9,10,10,11,11,12,12,13,13,14,14,15,15,16,16,17,17,18,18,19,19,20,20,21,21,22,22,25,25,26,26,28,28,30,30,31,31,32,32,33,33,34,34,35,35,36,36,37,37,38,38,39,39,40,40,41,41,46,46,47,47,48,48,52,52,55,55,56,56,57,57,58,58,59,59,60,60,61,61,62,62,63,63,64,64,65,65,66,66,67,67,68,68,70,70,71,71,80,80,81,81,88,88,90,90,91,91,92,92,93,93,94,94,95,95,96,96,97,97,98,98,99,99,100,100,101,101,102,102,103,103,104,104,105,105,106,106,107,107,112,112,118,118],"right_children":[2,4,6,8,10,12,14,16,18,20,22,24,26,28,30,32,34,36,38,40,42,44,46,-1,-1,48,50,-1,52,-1,54,56,58,60,62,64,66,68,70,72,74,76,-1,-1,-1,-1,78,80,82,-1,-1,-1,84,-1,-1,86,88,90,92,94,96,98,100,102,104,106,108,110,112,-1,114,116,-1,-1,-1,-1,-1,-1,-1,-1,118,120,-1,-1,-1,-1,-1,-1,122,-1,124,126,128,130,132,134,136,138,140,142,144,146,148,150,152,154,156,158,-1,-1,-1,-1,160,-1,-1,-1,-1,-1,162,-1,-1,-1,-1,-1,-1,-1,-1,-1,-1,-1,-1,-1,-1,-1,-1,-1,-1,-1,-1,-1,-1,-1,-1,-1,-1,-1,-1,-1,-1,-1,-1,-1,-1,-1,-1,-1,-1,-1,-1,-1,-1,-1,-1],"split_conditions":[5.176667E2,1.27E2,2.3E2,3.7E1,2.78E2,2.4E2,3.2E1,1.31E1,7.3E1,1.9E2,4.1E2,1.6E2,4.5E1,4.4E1,1.9421194E2,5.5E0,2.4E1,5.3E1,1E2,1.6E2,2.42E2,3.25E2,1.636313E2,3.0431448E1,3.5389874E1,1.25E2,1.2933333E1,3.6608902E1,5.35E1,1.56303E2,4.4897144E1,8.164966E-1,8.5E0,1.9E1,3E1,4.4E1,6.1E1,8.5E1,1.11E2,1.5E2,1.7277E2,2.11E2,1.0927522E1,1.2864534E1,1.571897E1,1.9303734E1,1.3E2,9.9E1,7.6E1,5.1479847E1,1.1388423E2,4.021116E1,2.5E1,1.1938903E2,2.9804398E2,2E0,4E0,7E0,1.005E1,1.566E1,2.137E1,2.7E1,3.233E1,4.1E1,5E1,5.605E1,6.8E1,7.9E1,9E1,3.5272477E0,1.2E2,1.35E2,5.8496447E0,6.4134364E0,7.1639695E0,8.14685E0,9.30232E0,2.0529535E1,2.3339184E1,4.182944E1,6.9E1,2.3E2,9.088174E1,7.598096E1,1.22894554E2,-1.3348087E0,-1.2870543E0,-1.238572E0,4.39E0,-1.0959227E0,7.5E0,9.08E0,1.2E1,1.422E1,1.711E1,2.1E1,2.3E1,2.6E1,2.9E1,3.1E1,3.5E1,3.9E1,4.3E1,4.7E1,5.15E1,5.5E1,6E1,6.5E1,1.9495411E0,2.2036655E0,2.4490411E0,2.6877027E0,9.4E1,4.0116067E0,4.4549203E0,4.80512E0,5.2526703E0,3.6881207E1,1.2933333E1,3.887346E1,6.493327E1,-1.1913017E0,-1.1447672E0,-1.0490761E0,-1.0027307E0,-9.563036E-1,-9.103951E-1,-8.6187E-1,-7.861224E-1,-7.196356E-1,-6.707675E-1,-5.839507E-1,-5.274252E-1,-4.398906E-1,-3.8401994E-1,-3.344576E-1,-2.8871712E-1,-2.196428E-1,-1.4408422E-1,-6.70964E-2,-2.2363325E-3,4.5100685E-2,1.1396264E-1,2.014819E-1,3.0504057E-1,4.1184267E-1,4.9575678E-1,5.863542E-1,6.596195E-1,7.8833497E-1,8.838734E-1,1.008478E0,1.085625E0,1.1428412E0,1.2412275E0,1.3506109E0,1.4676477E0,1.5645653E0,1.7287512E0,2.9267137E0,3.1620853E0,4.709997E1,6.677189E1],"split_indices":[24,2,15,2,2,25,17,2,2,2,2,25,17,0,20,2,2,2,2,2,2,2,3,0,0,15,13,0,7,0,22,5,2,2,2,2,2,2,2,2,2,2,0,0,0,0,25,23,0,0,0,0,17,0,0,0,2,2,2,2,2,2,2,2,2,2,2,2,2,0,2,2,0,0,0,0,0,0,0,0,0,4,0,0,0,0,0,0,2,0,2,2,2,2,2,2,2,2,2,2,2,2,2,2,2,2,2,2,0,0,0,0,2,0,0,0,0,0,13,0,0,0,0,0,0,0,0,0,0,0,0,0,0,0,0,0,0,0,0,0,0,0,0,0,0,0,0,0,0,0,0,0,0,0,0,0,0,0,0,0,0,0,0],"split_type":[0,0,0,0,0,0,0,0,0,0,0,0,0,0,0,0,0,0,0,0,0,0,0,0,0,0,0,0,0,0,0,0,0,0,0,0,0,0,0,0,0,0,0,0,0,0,0,0,0,0,0,0,0,0,0,0,0,0,0,0,0,0,0,0,0,0,0,0,0,0,0,0,0,0,0,0,0,0,0,0,0,0,0,0,0,0,0,0,0,0,0,0,0,0,0,0,0,0,0,0,0,0,0,0,0,0,0,0,0,0,0,0,0,0,0,0,0,0,0,0,0,0,0,0,0,0,0,0,0,0,0,0,0,0,0,0,0,0,0,0,0,0,0,0,0,0,0,0,0,0,0,0,0,0,0,0,0,0,0,0,0,0,0],"sum_hessian":[1.34897E5,1.34456E5,4.41E2,1.2952E5,4.936E3,3.88E2,5.3E1,1.12218E5,1.7302E4,3.568E3,1.368E3,1.88E2,2E2,3E1,2.3E1,7.8768E4,3.345E4,1.2352E4,4.95E3,2.163E3,1.405E3,8.88E2,4.8E2,8.5E1,1.03E2,1.8E2,2E1,7E0,2.3E1,1.1E1,1.2E1,4.971E4,2.9058E4,2.0592E4,1.2858E4,7.211E3,5.141E3,3.141E3,1.809E3,1.187E3,9.76E2,9.51E2,4.54E2,4.4E2,4.48E2,1.15E2,3.65E2,1.21E2,5.9E1,7E0,1.3E1,3E0,2E1,3E0,9E0,2.996E4,1.975E4,1.5657E4,1.3401E4,1.281E4,7.782E3,7.182E3,5.676E3,4.258E3,2.953E3,2.657E3,2.484E3,1.649E3,1.492E3,8.93E2,9.16E2,8.39E2,3.48E2,5.89E2,3.87E2,4.88E2,4.63E2,1.93E2,1.72E2,6.7E1,5.4E1,4.1E1,1.8E1,9E0,1.1E1,2.026E4,9.7E3,7.857E3,1.1893E4,7.891E3,7.766E3,6.299E3,7.102E3,6.778E3,6.032E3,4.285E3,3.497E3,3.884E3,3.298E3,2.297E3,3.379E3,2.424E3,1.834E3,1.647E3,1.306E3,1.509E3,1.148E3,1.562E3,9.22E2,8.76E2,7.73E2,6.08E2,8.84E2,4.46E2,4.7E2,2.78E2,5.61E2,9E0,4.5E1,1.1E1,3E1,6.081E3,5.812E3,4.186E3,3.58E3,3.141E3,3.158E3,6.228E3,8.74E2,4.532E3,2.246E3,3.137E3,2.895E3,2.72E3,1.565E3,7.8E2,2.717E3,2.539E3,1.345E3,2.203E3,1.095E3,9.17E2,1.38E3,1.961E3,1.418E3,1.315E3,1.109E3,9.57E2,8.77E2,7.68E2,8.79E2,1.022E3,2.84E2,3.63E2,1.146E3,5.49E2,5.99E2,5.75E2,9.87E2,4.34E2,4.5E2,2.3E1,2.2E1],"tree_param":{"num_deleted":"0","num_feature":"29","num_nodes":"163","size_leaf_vector":"1"}},{"base_weights":[2.1833798E-1,-3.7030888E0,1.1525598E3,-1.0986825E1,1.8831343E2,9.086149E2,2.8485112E3,-1.7388607E1,3.0705116E1,1.3920897E2,3.1723218E2,6.6321747E2,1.2217378E3,1.648543E3,4.120748E3,-2.2086367E1,-6.04503E0,1.973011E1,5.8380966E1,1.1326958E2,1.7940532E2,2.7215863E2,4.0357043E2,3.0359564E1,7.1728815E2,8.7621405E2,1.4905475E3,3.16899E1,9.59049E1,1.068128E2,4.8438843E3,-2.4147E1,-1.8602793E1,-1.0020225E1,1.710564E-1,1.3107525E1,2.9018253E1,4.9490303E1,7.391423E1,1.0138285E2,1.2750048E2,1.6593214E2,1.0377379E1,1.2248414E1,1.4946024E1,1.6820671E1,4.0948492E2,2.9080841E1,3.7617825E1,6.940329E2,1.02018005E3,5.365229E1,1.730121E3,1.4295451E2,2.6742557E2,-2.5068636E1,-2.273836E1,-2.0152885E1,-1.6778233E1,-1.1992967E1,-6.945353E0,-2.3766303E0,3.45659E0,9.961791E0,1.754061E1,2.4791178E1,3.370631E1,4.3959118E1,5.5206352E1,6.697969E1,8.0559456E1,9.741276E1,5.5556197E0,6.0880356E0,6.812885E0,7.737413E0,8.83597E0,2.0086035E1,2.3489782E1,2.305562E1,3.7038563E1,3.1656424E1,5.532754E1,7.7839096E1,1.0731732E2,-1.268072E0,-1.2226957E0,-1.1766748E0,-2.2208624E1,-1.0411123E0,-1.9492249E1,-1.7633736E1,-1.6004183E1,-1.3221612E1,-1.0478474E1,-7.9766607E0,-5.6787605E0,-3.672869E0,-8.5018384E-1,2.3482265E0,5.422625E0,8.5496025E0,1.1818978E1,1.596042E1,1.9511778E1,2.34991E1,1.3711592E0,3.170874E1,1.8522669E0,2.0903833E0,2.3242564E0,2.552082E0,5.7936035E1,3.2149808E0,3.4538248E0,3.8138115E0,4.234142E0,4.5705743E0,5.0019164E0,-1.1317468E0,-1.0874708E0,-9.9665034E-1,-9.5065385E-1,-9.038491E-1,-8.5961336E-1,-8.130452E-1,-7.136244E-1,-6.79704E-1,-6.278132E-1,-5.46328E-1,-4.9918976E-1,-4.174845E-1,-3.648815E-1,-3.1775898E-1,-2.743157E-1,-2.286413E-1,-1.5674423E-1,-6.282612E-2,-2.2342603E-3,6.256459E-2,1.621783E-1,2.4891913E-1,3.1600937E-1,3.90758E-1,4.710363E-1,5.335197E-1,6.1138165E-1,7.489542E-1,8.3974344E-1,9.5904076E-1,1.0313243E0,1.0870994E0,1.1960192E0,1.4864562E0,1.6432638E0,2.780359E0,3.0074043E0],"categories":[],"categories_nodes":[],"categories_segments":[],"categories_sizes":[],"default_left":[0,0,0,0,0,0,0,0,0,0,0,0,0,0,0,0,0,0,0,0,0,0,0,0,0,0,0,0,0,0,0,0,0,0,0,0,0,0,0,0,0,0,0,0,0,0,0,0,0,0,0,0,0,0,0,0,0,0,0,0,0,0,0,0,0,0,0,0,0,0,0,0,0,0,0,0,0,0,0,0,0,0,0,0,0,0,0,0,0,0,0,0,0,0,0,0,0,0,0,0,0,0,0,0,0,0,0,0,0,0,0,0,0,0,0,0,0,0,0,0,0,0,0,0,0,0,0,0,0,0,0,0,0,0,0,0,0,0,0,0,0,0,0,0,0,0,0,0,0,0,0,0,0,0,0,0,0],"id":2,"left_children":[1,3,5,7,9,11,13,15,17,19,21,23,25,27,29,31,33,35,37,39,41,43,45,-1,47,49,51,-1,-1,-1,53,55,57,59,61,63,65,67,69,71,73,75,-1,-1,-1,-1,77,-1,-1,79,81,-1,83,-1,-1,85,87,89,91,93,95,97,99,101,103,105,107,109,111,113,115,117,-1,-1,-1,-1,-1,-1,-1,-1,-1,-1,-1,-1,-1,-1,-1,-1,119,-1,121,123,125,127,129,131,133,135,137,139,141,143,145,147,149,151,-1,153,-1,-1,-1,-1,155,-1,-1,-1,-1,-1,-1,-1,-1,-1,-1,-1,-1,-1,-1,-1,-1,-1,-1,-1,-1,-1,-1,-1,-1,-1,-1,-1,-1,-1,-1,-1,-1,-1,-1,-1,-1,-1,-1,-1,-1,-1,-1,-1,-1],"loss_changes":[6.089112E8,1.8782394E8,1.8648083E8,3.4534E7,3.1025808E7,3.0002208E7,8.022486E7,5.977016E6,5.230199E6,3.687384E6,5.155392E6,2.52008E5,1.4947744E7,7.263472E6,2.839808E7,5.68908E5,8.117065E5,7.582985E5,6.71644E5,3.5311E5,4.937E5,5.75796E5,4.5672E4,0E0,8.5636E4,1.363792E6,7.845376E6,0E0,0E0,0E0,3.737312E6,6.4122E4,8.3046E4,1.2145175E5,1.0726803E5,1.0025675E5,1.00878E5,9.5986E4,7.6523E4,3.489E4,3.2693E4,8.687E4,0E0,0E0,0E0,0E0,7.864E3,0E0,0E0,7.1982E4,7.03296E5,0E0,9.87136E5,0E0,0E0,4.796E3,7.779E3,6.6375E3,8.6865E3,2.2567875E4,1.0185156E4,1.4278242E4,1.21828125E4,1.09515625E4,8.9920625E3,8.54275E3,1.503325E4,6.67225E3,1.43915E4,4.68E2,9.4725E3,4.2135E3,0E0,0E0,0E0,0E0,0E0,0E0,0E0,0E0,0E0,0E0,0E0,0E0,0E0,0E0,0E0,0E0,1.8235E3,0E0,1.31425E3,9.43E2,2.932E3,1.495625E3,1.1014375E3,1.0305E3,4.2202344E2,1.8745781E3,1.0851572E3,3.512496E3,7.7165234E2,1.4588594E3,7.205469E2,1.107875E3,8.91875E1,8.22625E2,0E0,2.514875E3,0E0,0E0,0E0,0E0,1.35725E3,0E0,0E0,0E0,0E0,0E0,0E0,0E0,0E0,0E0,0E0,0E0,0E0,0E0,0E0,0E0,0E0,0E0,0E0,0E0,0E0,0E0,0E0,0E0,0E0,0E0,0E0,0E0,0E0,0E0,0E0,0E0,0E0,0E0,0E0,0E0,0E0,0E0,0E0,0E0,0E0,0E0,0E0,0E0,0E0],"parents":[2147483647,0,0,1,1,2,2,3,3,4,4,5,5,6,6,7,7,8,8,9,9,10,10,11,11,12,12,13,13,14,14,15,15,16,16,17,17,18,18,19,19,20,20,21,21,22,22,24,24,25,25,26,26,30,30,31,31,32,32,33,33,34,34,35,35,36,36,37,37,38,38,39,39,40,40,41,41,46,46,49,49,50,50,52,52,55,55,56,56,57,57,58,58,59,59,60,60,61,61,62,62,63,63,64,64,65,65,66,66,67,67,68,68,69,69,70,70,71,71,88,88,90,90,91,91,92,92,93,93,94,94,95,95,96,96,97,97,98,98,99,99,100,100,101,101,102,102,103,103,104,104,105,105,107,107,112,112],"right_children":[2,4,6,8,10,12,14,16,18,20,22,24,26,28,30,32,34,36,38,40,42,44,46,-1,48,50,52,-1,-1,-1,54,56,58,60,62,64,66,68,70,72,74,76,-1,-1,-1,-1,78,-1,-1,80,82,-1,84,-1,-1,86,88,90,92,94,96,98,100,102,104,106,108,110,112,114,116,118,-1,-1,-1,-1,-1,-1,-1,-1,-1,-1,-1,-1,-1,-1,-1,-1,120,-1,122,124,126,128,130,132,134,136,138,140,142,144,146,148,150,152,-1,154,-1,-1,-1,-1,156,-1,-1,-1,-1,-1,-1,-1,-1,-1,-1,-1,-1,-1,-1,-1,-1,-1,-1,-1,-1,-1,-1,-1,-1,-1,-1,-1,-1,-1,-1,-1,-1,-1,-1,-1,-1,-1,-1,-1,-1,-1,-1,-1,-1],"split_conditions":[5.95E2,1.27E2,2.3E2,3.7E1,2.78E2,8E1,3.2E1,1.4E1,7.3E1,1.9E2,4.1E2,2.8E1,3.1E1,4.2E1,4.4897144E1,5.5E0,2.4E1,5.3E1,1E2,1.6E2,2.42E2,3.25E2,1.3050095E2,3.0359564E1,8.633333E0,1.05E2,1.7146206E1,3.16899E1,9.59049E1,1.068128E2,1.4400166E2,8.164966E-1,9E0,1.9E1,3E1,4.4E1,6.1E1,8.5E1,1.11E2,1.5E2,1.7277E2,2.11E2,1.0377379E1,1.2248414E1,1.4946024E1,1.6820671E1,4.125E2,2.9080841E1,3.7617825E1,5.176667E2,1.9E1,5.365229E1,4.6E1,1.4295451E2,2.6742557E2,2E0,4E0,7E0,1.089E1,1.603E1,2.137E1,2.7E1,3.4E1,4.1E1,5E1,5.8E1,6.8E1,7.9E1,9E1,1.05E2,1.2E2,1.35E2,5.5556197E0,6.0880356E0,6.812885E0,7.737413E0,8.83597E0,2.0086035E1,2.3489782E1,2.305562E1,3.7038563E1,3.1656424E1,5.532754E1,7.7839096E1,1.0731732E2,-1.268072E0,-1.2226957E0,-1.1766748E0,4.39E0,-1.0411123E0,7.5E0,1E1,1.3E1,1.5E1,1.8E1,2.1E1,2.3E1,2.5E1,2.9E1,3.2E1,3.6E1,3.9E1,4.102E1,4.7E1,5.15E1,5.5E1,1.3711592E0,6.5E1,1.8522669E0,2.0903833E0,2.3242564E0,2.552082E0,9.4E1,3.2149808E0,3.4538248E0,3.8138115E0,4.234142E0,4.5705743E0,5.0019164E0,-1.1317468E0,-1.0874708E0,-9.9665034E-1,-9.5065385E-1,-9.038491E-1,-8.5961336E-1,-8.130452E-1,-7.136244E-1,-6.79704E-1,-6.278132E-1,-5.46328E-1,-4.9918976E-1,-4.174845E-1,-3.648815E-1,-3.1775898E-1,-2.743157E-1,-2.286413E-1,-1.5674423E-1,-6.282612E-2,-2.2342603E-3,6.256459E-2,1.621783E-1,2.4891913E-1,3.1600937E-1,3.90758E-1,4.710363E-1,5.335197E-1,6.1138165E-1,7.489542E-1,8.3974344E-1,9.5904076E-1,1.0313243E0,1.0870994E0,1.1960192E0,1.4864562E0,1.6432638E0,2.780359E0,3.0074043E0],"split_indices":[2,2,15,2,2,27,17,2,2,2,2,17,17,0,22,2,2,2,2,2,2,2,5,0,26,15,16,0,0,0,20,5,2,2,2,2,2,2,2,2,2,2,0,0,0,0,8,0,0,24,17,0,17,0,0,0,2,2,2,2,2,2,2,2,2,2,2,2,2,2,2,2,0,0,0,0,0,0,0,0,0,0,0,0,0,0,0,0,2,0,2,2,2,2,2,2,2,2,2,2,2,2,2,2,2,2,0,2,0,0,0,0,2,0,0,0,0,0,0,0,0,0,0,0,0,0,0,0,0,0,0,0,0,0,0,0,0,0,0,0,0,0,0,0,0,0,0,0,0,0,0,0,0,0,0,0,0],"split_type":[0,0,0,0,0,0,0,0,0,0,0,0,0,0,0,0,0,0,0,0,0,0,0,0,0,0,0,0,0,0,0,0,0,0,0,0,0,0,0,0,0,0,0,0,0,0,0,0,0,0,0,0,0,0,0,0,0,0,0,0,0,0,0,0,0,0,0,0,0,0,0,0,0,0,0,0,0,0,0,0,0,0,0,0,0,0,0,0,0,0,0,0,0,0,0,0,0,0,0,0,0,0,0,0,0,0,0,0,0,0,0,0,0,0,0,0,0,0,0,0,0,0,0,0,0,0,0,0,0,0,0,0,0,0,0,0,0,0,0,0,0,0,0,0,0,0,0,0,0,0,0,0,0,0,0,0,0],"sum_hessian":[1.34748E5,1.34292E5,4.56E2,1.29385E5,4.907E3,4E2,5.6E1,1.12163E5,1.7222E4,3.555E3,1.352E3,2.26E2,1.74E2,3E1,2.6E1,7.9315E4,3.2848E4,1.2333E4,4.889E3,2.163E3,1.392E3,8.91E2,4.61E2,1.17E2,1.09E2,7.8E1,9.6E1,7E0,2.3E1,8E0,1.8E1,4.9832E4,2.9483E4,2.0035E4,1.2813E4,7.201E3,5.132E3,3.112E3,1.777E3,1.183E3,9.8E2,9.46E2,4.46E2,4.47E2,4.44E2,4.2E1,4.19E2,2.6E1,8.3E1,3.7E1,4.1E1,3.7E1,5.9E1,5E0,1.3E1,3.0113E4,1.9719E4,1.5935E4,1.3548E4,1.2203E4,7.832E3,7.217E3,5.596E3,4.214E3,2.987E3,2.702E3,2.43E3,1.586E3,1.526E3,8.75E2,9.02E2,8.48E2,3.35E2,6.01E2,3.79E2,4.72E2,4.74E2,3.78E2,4.1E1,8E0,2.9E1,9E0,3.2E1,4.5E1,1.4E1,2.037E4,9.743E3,7.867E3,1.1852E4,7.9E3,8.035E3,6.425E3,7.123E3,6.733E3,5.47E3,4.314E3,3.518E3,3.902E3,3.315E3,3.58E3,2.016E3,2.397E3,1.817E3,1.663E3,1.324E3,1.819E3,8.83E2,1.527E3,9.03E2,8.66E2,7.2E2,6.12E2,9.14E2,3.98E2,4.77E2,4.52E2,4.5E2,2.69E2,5.79E2,6.121E3,5.731E3,4.164E3,3.871E3,3.186E3,3.239E3,6.196E3,9.27E2,4.304E3,2.429E3,2.859E3,2.611E3,2.777E3,1.537E3,7.72E2,2.746E3,1.457E3,2.445E3,2.203E3,1.112E3,1.61E3,1.97E3,1.353E3,6.63E2,1.306E3,1.091E3,4.84E2,1.333E3,7.73E2,8.9E2,1.035E3,2.89E2,3.62E2,1.457E3,5.73E2,9.54E2,4.58E2,4.56E2],"tree_param":{"num_deleted":"0","num_feature":"29","num_nodes":"157","size_leaf_vector":"1"}},{"base_weights":[2.1287215E-1,-3.462993E0,1.0872057E3,-1.0440415E1,1.7849933E2,9.642247E2,3.3444888E3,-1.6492615E1,2.918254E1,1.3223373E2,3.0179898E2,6.234585E2,1.3299641E3,2.3933923E3,2.588248E2,-2.0977682E1,-5.7320905E0,1.868866E1,5.5558983E1,1.0762441E2,1.7040742E2,2.5837292E2,3.8599496E2,2.4849392E1,6.418522E2,1.0279015E3,1.6963683E3,4.846868E1,1.3146455E2,-2.2934917E1,-1.7669699E1,-9.532563E0,1.7076309E-1,1.245757E1,2.7597624E1,4.6911583E1,7.034861E1,9.633234E1,1.2140304E2,1.5730765E2,9.867589E0,1.1652638E1,1.4150156E1,1.6073753E1,1.9570639E1,2.8398817E1,3.396384E1,8.071191E2,1.30319E3,4.9109768E1,2.0791719E3,-2.3813982E1,-2.1597702E1,-1.9173908E1,-1.5984781E1,-1.1387098E1,-6.599337E0,-2.2619834E0,3.2573647E0,9.44803E0,1.6657127E1,2.3540504E1,3.2067192E1,4.1777397E1,5.2460003E1,6.3738937E1,7.660717E1,9.250908E1,5.2800364E0,5.790582E0,6.476861E0,7.361818E0,8.398069E0,2.5527517E1,8.901475E2,2.8370993E1,1.4298242E3,1.9558318E2,9.3738846E1,-1.2046709E0,-1.1615613E0,-1.1178471E0,-2.1093874E1,-9.9061596E-1,-1.8583857E1,-1.6794516E1,-1.5209662E1,-1.2648043E1,-1.0056488E1,-7.578986E0,-5.3926215E0,-3.4846318E0,-8.159847E-1,1.5400385E0,4.414408E0,8.1322155E0,1.122069E1,1.515688E1,1.852129E1,2.200503E1,2.5519508E1,3.0140272E1,1.7602742E0,1.9857577E0,2.209785E0,2.426118E0,5.5073074E1,3.056438E0,3.282198E0,3.6263294E0,4.025587E0,4.340933E0,4.753015E0,3.146709E1,4.7306652E1,3.4572792E1,1.510913E3,-1.0751469E0,-1.0331444E0,-9.477667E-1,-9.051548E-1,-8.603677E-1,-8.1664467E-1,-7.756666E-1,-6.951568E-1,-6.457896E-1,-6.032566E-1,-5.270162E-1,-4.7596836E-1,-3.968236E-1,-3.4658083E-1,-3.0188012E-1,-2.6052603E-1,-1.9892773E-1,-1.2914677E-1,-9.1703065E-2,-2.4936706E-2,3.95616E-2,1.0247921E-1,1.8191503E-1,2.7618164E-1,3.718621E-1,4.477829E-1,5.2898806E-1,5.961313E-1,7.29688E-1,8.243422E-1,9.110698E-1,9.7978157E-1,1.0317185E0,1.12045E0,1.2184896E0,1.3259028E0,1.4130272E0,1.5599283E0,2.6426482E0,2.8552384E0,8.174545E1,5.0631145E1],"categories":[],"categories_nodes":[],"categories_segments":[],"categories_sizes":[],"default_left":[0,0,0,0,0,0,0,0,0,0,0,0,0,0,0,0,0,0,0,0,0,0,0,0,0,0,0,0,0,0,0,0,0,0,0,0,0,0,0,0,0,0,0,0,0,0,0,0,0,0,0,0,0,0,0,0,0,0,0,0,0,0,0,0,0,0,0,0,0,0,0,0,0,0,0,0,0,0,0,0,0,0,0,0,0,0,0,0,0,0,0,0,0,0,0,0,0,0,0,0,0,0,0,0,0,0,0,0,0,0,0,0,0,0,0,0,0,0,0,0,0,0,0,0,0,0,0,0,0,0,0,0,0,0,0,0,0,0,0,0,0,0,0,0,0,0,0,0,0,0,0,0,0,0,0,0,0,0,0],"id":3,"left_children":[1,3,5,7,9,11,13,15,17,19,21,23,25,27,-1,29,31,33,35,37,39,41,43,-1,45,47,49,-1,-1,51,53,55,57,59,61,63,65,67,69,71,-1,-1,-1,-1,-1,-1,-1,73,75,-1,77,79,81,83,85,87,89,91,93,95,97,99,101,103,105,107,109,111,-1,-1,-1,-1,-1,-1,113,-1,115,-1,-1,-1,-1,-1,117,-1,119,121,123,125,127,129,131,133,135,137,139,141,143,145,147,149,151,153,-1,-1,-1,-1,155,-1,-1,-1,-1,-1,-1,-1,-1,-1,157,-1,-1,-1,-1,-1,-1,-1,-1,-1,-1,-1,-1,-1,-1,-1,-1,-1,-1,-1,-1,-1,-1,-1,-1,-1,-1,-1,-1,-1,-1,-1,-1,-1,-1,-1,-1,-1,-1,-1,-1,-1,-1],"loss_changes":[5.370537E8,1.700774E8,1.225289E8,3.09381E7,2.8180368E7,5.2886816E7,2.7685424E7,5.40118E6,4.730701E6,3.362636E6,4.832544E6,2.04304E5,2.1166208E7,3.161584E6,0E0,5.11024E5,7.386525E5,6.78626E5,6.18881E5,3.29178E5,4.66248E5,4.90904E5,3.3848E4,0E0,1.47664E5,5.998296E6,2.3109232E7,0E0,0E0,5.7814E4,7.4123E4,1.088815E5,9.685E4,9.082625E4,9.0506E4,8.53385E4,6.9274E4,3.3052E4,2.9683E4,7.7494E4,0E0,0E0,0E0,0E0,0E0,0E0,0E0,1.195176E6,3.847184E6,0E0,1.4764512E7,4.31E3,7.058E3,5.471E3,8.43925E3,2.04575E4,9.1325625E3,1.27489375E4,1.128882E4,9.693969E3,8.1171875E3,7.462E3,1.339725E4,6.22075E3,1.24735E4,3.405E2,8.74E3,4.272E3,0E0,0E0,0E0,0E0,0E0,0E0,1.49072E5,0E0,1.469728E6,0E0,0E0,0E0,0E0,0E0,1.6415E3,0E0,1.09575E3,1.005375E3,2.594875E3,8.243125E2,1.4504375E3,9.3421875E2,3.7626562E2,1.7295664E3,1.0666416E3,8.718462E2,2.9025234E3,1.3120781E3,6.746719E2,1.007E3,6.928125E1,3.61125E2,6.66625E2,2.0745E3,0E0,0E0,0E0,0E0,9.31E2,0E0,0E0,0E0,0E0,0E0,0E0,0E0,0E0,0E0,6.30264E5,0E0,0E0,0E0,0E0,0E0,0E0,0E0,0E0,0E0,0E0,0E0,0E0,0E0,0E0,0E0,0E0,0E0,0E0,0E0,0E0,0E0,0E0,0E0,0E0,0E0,0E0,0E0,0E0,0E0,0E0,0E0,0E0,0E0,0E0,0E0,0E0,0E0,0E0,0E0,0E0,0E0,0E0],"parents":[2147483647,0,0,1,1,2,2,3,3,4,4,5,5,6,6,7,7,8,8,9,9,10,10,11,11,12,12,13,13,15,15,16,16,17,17,18,18,19,19,20,20,21,21,22,22,24,24,25,25,26,26,29,29,30,30,31,31,32,32,33,33,34,34,35,35,36,36,37,37,38,38,39,39,47,47,48,48,50,50,51,51,52,52,53,53,54,54,55,55,56,56,57,57,58,58,59,59,60,60,61,61,62,62,63,63,64,64,65,65,66,66,67,67,74,74,76,76,82,82,84,84,85,85,86,86,87,87,88,88,89,89,90,90,91,91,92,92,93,93,94,94,95,95,96,96,97,97,98,98,99,99,100,100,101,101,106,106,116,116],"right_children":[2,4,6,8,10,12,14,16,18,20,22,24,26,28,-1,30,32,34,36,38,40,42,44,-1,46,48,50,-1,-1,52,54,56,58,60,62,64,66,68,70,72,-1,-1,-1,-1,-1,-1,-1,74,76,-1,78,80,82,84,86,88,90,92,94,96,98,100,102,104,106,108,110,112,-1,-1,-1,-1,-1,-1,114,-1,116,-1,-1,-1,-1,-1,118,-1,120,122,124,126,128,130,132,134,136,138,140,142,144,146,148,150,152,154,-1,-1,-1,-1,156,-1,-1,-1,-1,-1,-1,-1,-1,-1,158,-1,-1,-1,-1,-1,-1,-1,-1,-1,-1,-1,-1,-1,-1,-1,-1,-1,-1,-1,-1,-1,-1,-1,-1,-1,-1,-1,-1,-1,-1,-1,-1,-1,-1,-1,-1,-1,-1,-1,-1,-1,-1],"split_conditions":[5.95E2,1.27E2,4.9E1,3.7E1,2.78E2,8E1,8.2E1,1.4E1,7.3E1,1.9E2,4.1E2,2.5408064E2,3.2E1,1.7146206E1,2.588248E2,5.5E0,2.4E1,5.3E1,1E2,1.6E2,2.42E2,3.25E2,1.3050095E2,2.4849392E1,1.6E2,9.9E1,1.7146206E1,4.846868E1,1.3146455E2,8.164966E-1,8.5E0,1.9E1,3E1,4.4E1,6.1E1,8.5E1,1.11E2,1.5E2,1.7277E2,2.11E2,9.867589E0,1.1652638E1,1.4150156E1,1.6073753E1,1.9570639E1,2.8398817E1,3.396384E1,2.5408064E2,1.9E1,4.9109768E1,4E1,2E0,4E0,6.5E0,1.089E1,1.566E1,2.137E1,2.7E1,3.233E1,4.1E1,5E1,5.605E1,6.8E1,7.9E1,9E1,1.05E2,1.2E2,1.35E2,5.2800364E0,5.790582E0,6.476861E0,7.361818E0,8.398069E0,2.5527517E1,2.4E2,2.8370993E1,1.7146206E1,1.9558318E2,9.3738846E1,-1.2046709E0,-1.1615613E0,-1.1178471E0,4.39E0,-9.9061596E-1,7.5E0,1E1,1.2E1,1.5E1,1.711E1,2.1E1,2.3E1,2.6E1,2.8E1,3.1E1,3.5E1,3.9E1,4.3E1,4.8E1,5.15E1,5.5E1,6E1,6.5E1,1.7602742E0,1.9857577E0,2.209785E0,2.426118E0,9.4E1,3.056438E0,3.282198E0,3.6263294E0,4.025587E0,4.340933E0,4.753015E0,3.146709E1,4.7306652E1,3.4572792E1,1.8E1,-1.0751469E0,-1.0331444E0,-9.477667E-1,-9.051548E-1,-8.603677E-1,-8.1664467E-1,-7.756666E-1,-6.951568E-1,-6.457896E-1,-6.032566E-1,-5.270162E-1,-4.7596836E-1,-3.968236E-1,-3.4658083E-1,-3.0188012E-1,-2.6052603E-1,-1.9892773E-1,-1.2914677E-1,-9.1703065E-2,-2.4936706E-2,3.95616E-2,1.0247921E-1,1.8191503E-1,2.7618164E-1,3.718621E-1,4.477829E-1,5.2898806E-1,5.961313E-1,7.29688E-1,8.243422E-1,9.110698E-1,9.7978157E-1,1.0317185E0,1.12045E0,1.2184896E0,1.3259028E0,1.4130272E0,1.5599283E0,2.6426482E0,2.8552384E0,8.174545E1,5.0631145E1],"split_indices":[2,2,17,2,2,27,18,2,2,2,2,3,17,16,0,2,2,2,2,2,2,2,5,0,25,23,16,0,0,5,2,2,2,2,2,2,2,2,2,2,0,0,0,0,0,0,0,3,17,0,18,2,2,2,2,2,2,2,2,2,2,2,2,2,2,2,2,2,0,0,0,0,0,0,25,0,16,0,0,0,0,0,2,0,2,2,2,2,2,2,2,2,2,2,2,2,2,2,2,2,2,2,0,0,0,0,2,0,0,0,0,0,0,0,0,0,12,0,0,0,0,0,0,0,0,0,0,0,0,0,0,0,0,0,0,0,0,0,0,0,0,0,0,0,0,0,0,0,0,0,0,0,0,0,0,0,0,0,0],"split_type":[0,0,0,0,0,0,0,0,0,0,0,0,0,0,0,0,0,0,0,0,0,0,0,0,0,0,0,0,0,0,0,0,0,0,0,0,0,0,0,0,0,0,0,0,0,0,0,0,0,0,0,0,0,0,0,0,0,0,0,0,0,0,0,0,0,0,0,0,0,0,0,0,0,0,0,0,0,0,0,0,0,0,0,0,0,0,0,0,0,0,0,0,0,0,0,0,0,0,0,0,0,0,0,0,0,0,0,0,0,0,0,0,0,0,0,0,0,0,0,0,0,0,0,0,0,0,0,0,0,0,0,0,0,0,0,0,0,0,0,0,0,0,0,0,0,0,0,0,0,0,0,0,0,0,0,0,0,0,0],"sum_hessian":[1.34408E5,1.33956E5,4.52E2,1.2901E5,4.946E3,4.3E2,2.2E1,1.11916E5,1.7094E4,3.598E3,1.348E3,2.24E2,2.06E2,1.6E1,6E0,7.8991E4,3.2925E4,1.223E4,4.864E3,2.19E3,1.408E3,8.92E2,4.56E2,3.2E1,1.92E2,1.15E2,9.1E1,3E0,1.3E1,4.9624E4,2.9367E4,2.0029E4,1.2896E4,7.198E3,5.032E3,3.072E3,1.792E3,1.208E3,9.82E2,9.52E2,4.56E2,4.45E2,4.47E2,4E1,4.16E2,7E1,1.22E2,6.6E1,4.9E1,3.3E1,5.8E1,2.9931E4,1.9693E4,1.551E4,1.3857E4,1.2269E4,7.76E3,7.212E3,5.684E3,4.195E3,3.003E3,2.641E3,2.391E3,1.6E3,1.472E3,8.77E2,9.15E2,8.63E2,3.45E2,5.91E2,3.91E2,4.97E2,4.55E2,1.6E1,5E1,8E0,4.1E1,4E0,5.4E1,2.0203E4,9.728E3,7.838E3,1.1855E4,7.434E3,8.076E3,6.767E3,7.09E3,6.295E3,5.974E3,4.28E3,3.48E3,3.907E3,3.305E3,2.289E3,3.395E3,2.411E3,1.784E3,1.669E3,1.334E3,1.494E3,1.147E3,1.488E3,9.03E2,8.73E2,7.27E2,5.95E2,8.77E2,3.84E2,4.93E2,4.57E2,4.58E2,2.78E2,5.85E2,1.1E1,3.9E1,5E0,3.6E1,6.057E3,5.798E3,4.534E3,3.542E3,3.553E3,3.214E3,5.744E3,1.346E3,4.299E3,1.996E3,3.133E3,2.841E3,2.75E3,1.53E3,7.59E2,2.721E3,2.522E3,1.385E3,7.84E2,2.521E3,9.28E2,1.361E3,2E3,1.395E3,1.313E3,1.098E3,9.41E2,8.43E2,1.181E3,4.88E2,1.057E3,2.77E2,3.52E2,1.142E3,5.45E2,6.02E2,5.46E2,9.42E2,4.32E2,4.45E2,2.7E1,9E0],"tree_param":{"num_deleted":"0","num_feature":"29","num_nodes":"159","size_leaf_vector":"1"}},{"base_weights":[3.6408013E-1,-3.2227502E0,1.0382407E3,-9.900738E0,1.702861E2,8.0872705E2,2.6959683E3,-1.5678198E1,2.7777853E1,1.2566337E2,2.8883762E2,5.6954584E2,1.0439628E3,1.56335E3,3.6965627E3,-1.9979784E1,-5.557495E0,1.7785816E1,5.2705544E1,1.02121544E2,1.6167935E2,2.4607048E2,3.6800128E2,2.6133015E1,3.0227057E1,9.5567505E2,1.7010326E3,3.3962234E1,8.867952E1,2.6587236E3,4.945266E3,-2.1790625E1,-1.6861555E1,-9.113957E0,1.7544185E-1,1.1827804E1,2.6224184E1,4.461731E1,6.664237E1,9.148055E1,1.1519064E2,1.4963283E2,9.376388E0,1.1049769E1,1.3521167E1,1.5349558E1,3.739835E2,3.4759163E1,1.0650629E3,4.2837154E1,9.743073E1,2.8544036E3,6.3010937E1,1.04380394E2,3.056566E2,-2.262236E1,-2.0514515E1,-1.8216837E1,-1.5273213E1,-1.0921646E1,-6.321958E0,-2.1522293E0,3.1167061E0,9.000573E0,1.5823667E1,2.235276E1,3.0420399E1,3.9696793E1,4.980097E1,6.0433685E1,7.279766E1,8.782446E1,5.0170527E0,5.501045E0,6.1490893E0,6.99167E0,7.988897E0,1.7900068E1,2.0393244E1,8.6155646E2,6.3225933E1,8.20411E1,1.5732657E2,-1.1444407E0,-1.1035116E0,-1.0619472E0,-2.0036728E1,-9.4084805E-1,-1.7652164E1,-1.6004553E1,-1.4621715E1,-1.2066247E1,-9.587472E0,-7.2549186E0,-5.128155E0,-3.3089304E0,-7.789972E-1,2.1063676E0,4.9106226E0,7.3527083E0,1.0299606E1,1.4403138E1,1.7594267E1,2.0897135E1,2.4244278E1,2.8650871E1,1.6704903E0,1.8876135E0,2.0999734E0,2.305055E0,5.2283394E1,2.9009244E0,3.116902E0,3.4467697E0,3.824078E0,4.1254954E0,4.5078807E0,3.4306225E1,9.886879E2,-1.0214138E0,-9.8152065E-1,-9.002566E-1,-8.5990757E-1,-8.2008296E-1,-7.804003E-1,-7.390598E-1,-6.7385924E-1,-6.170873E-1,-5.753616E-1,-5.0088954E-1,-4.5389968E-1,-3.8249022E-1,-3.3276916E-1,-2.8685853E-1,-2.4755333E-1,-2.0880555E-1,-1.4216389E-1,-8.727443E-2,-2.399769E-2,5.5423897E-2,1.4592896E-1,2.2475965E-1,2.864631E-1,3.1701818E-1,3.791394E-1,4.6504503E-1,5.5284685E-1,6.7528504E-1,7.584442E-1,8.6424255E-1,9.3177074E-1,9.810896E-1,1.06446E0,1.15733E0,1.259697E0,1.3417218E0,1.4831299E0,2.510783E0,2.7133064E0,3.299188E1,5.3693127E1],"categories":[],"categories_nodes":[],"categories_segments":[],"categories_sizes":[],"default_left":[0,0,0,0,0,0,0,0,0,0,0,0,0,0,0,0,0,0,0,0,0,0,0,0,0,0,0,0,0,0,0,0,0,0,0,0,0,0,0,0,0,0,0,0,0,0,0,0,0,0,0,0,0,0,0,0,0,0,0,0,0,0,0,0,0,0,0,0,0,0,0,0,0,0,0,0,0,0,0,0,0,0,0,0,0,0,0,0,0,0,0,0,0,0,0,0,0,0,0,0,0,0,0,0,0,0,0,0,0,0,0,0,0,0,0,0,0,0,0,0,0,0,0,0,0,0,0,0,0,0,0,0,0,0,0,0,0,0,0,0,0,0,0,0,0,0,0,0,0,0,0,0,0,0,0,0,0,0,0,0,0],"id":4,"left_children":[1,3,5,7,9,11,13,15,17,19,21,23,25,27,29,31,33,35,37,39,41,43,45,-1,-1,47,49,-1,-1,51,53,55,57,59,61,63,65,67,69,71,73,75,-1,-1,-1,-1,77,-1,79,-1,-1,81,-1,-1,-1,83,85,87,89,91,93,95,97,99,101,103,105,107,109,111,113,115,-1,-1,-1,-1,-1,-1,-1,117,-1,-1,-1,-1,-1,-1,119,-1,121,123,125,127,129,131,133,135,137,139,141,143,145,147,149,151,153,155,-1,-1,-1,-1,157,-1,-1,-1,-1,-1,-1,-1,159,-1,-1,-1,-1,-1,-1,-1,-1,-1,-1,-1,-1,-1,-1,-1,-1,-1,-1,-1,-1,-1,-1,-1,-1,-1,-1,-1,-1,-1,-1,-1,-1,-1,-1,-1,-1,-1,-1,-1,-1,-1,-1],"loss_changes":[5.0154253E8,1.555697E8,1.7435798E8,2.8144472E7,2.6287168E7,2.2417216E7,5.768477E7,4.880126E6,4.280463E6,3.050256E6,4.513808E6,2.028E4,1.0266384E7,3.999552E6,2.4433792E7,4.43814E5,6.817281E5,6.1667225E5,5.51394E5,2.94E5,4.1656E5,4.81228E5,5.8488E4,0E0,0E0,4.473936E6,3.13798E6,0E0,0E0,1.32828E6,2.7285664E7,5.2346E4,6.19385E4,1.040755E5,8.765308E4,8.113856E4,8.1808E4,7.7466E4,6.45295E4,3.0432E4,2.5879E4,7.4958E4,0E0,0E0,0E0,0E0,8.5668E4,0E0,4.065344E6,0E0,0E0,1.5444E5,0E0,0E0,0E0,3.92E3,6.3705E3,4.9475E3,6.10675E3,1.90075E4,8.9964375E3,1.1349445E4,1.0240242E4,8.947375E3,7.23875E3,6.771375E3,1.191225E4,5.584E3,1.147625E4,5.29E2,7.533E3,3.2815E3,0E0,0E0,0E0,0E0,0E0,0E0,0E0,7.93464E5,0E0,0E0,0E0,0E0,0E0,0E0,1.4805E3,0E0,9.7675E2,7.26875E2,1.0855E3,8.93125E2,1.1760625E3,1.0250938E3,3.546797E2,1.5537812E3,9.437554E2,2.9303633E3,6.6598047E2,3.8423438E2,1.6763438E3,9.3234375E2,1.0015625E2,3.291875E2,6.045625E2,2.021125E3,0E0,0E0,0E0,0E0,9.4625E2,0E0,0E0,0E0,0E0,0E0,0E0,0E0,2.996E5,0E0,0E0,0E0,0E0,0E0,0E0,0E0,0E0,0E0,0E0,0E0,0E0,0E0,0E0,0E0,0E0,0E0,0E0,0E0,0E0,0E0,0E0,0E0,0E0,0E0,0E0,0E0,0E0,0E0,0E0,0E0,0E0,0E0,0E0,0E0,0E0,0E0,0E0,0E0,0E0,0E0,0E0],"parents":[2147483647,0,0,1,1,2,2,3,3,4,4,5,5,6,6,7,7,8,8,9,9,10,10,11,11,12,12,13,13,14,14,15,15,16,16,17,17,18,18,19,19,20,20,21,21,22,22,25,25,26,26,29,29,30,30,31,31,32,32,33,33,34,34,35,35,36,36,37,37,38,38,39,39,40,40,41,41,46,46,48,48,51,51,55,55,56,56,57,57,58,58,59,59,60,60,61,61,62,62,63,63,64,64,65,65,66,66,67,67,68,68,69,69,70,70,71,71,79,79,86,86,88,88,89,89,90,90,91,91,92,92,93,93,94,94,95,95,96,96,97,97,98,98,99,99,100,100,101,101,102,102,103,103,104,104,105,105,110,110,118,118],"right_children":[2,4,6,8,10,12,14,16,18,20,22,24,26,28,30,32,34,36,38,40,42,44,46,-1,-1,48,50,-1,-1,52,54,56,58,60,62,64,66,68,70,72,74,76,-1,-1,-1,-1,78,-1,80,-1,-1,82,-1,-1,-1,84,86,88,90,92,94,96,98,100,102,104,106,108,110,112,114,116,-1,-1,-1,-1,-1,-1,-1,118,-1,-1,-1,-1,-1,-1,120,-1,122,124,126,128,130,132,134,136,138,140,142,144,146,148,150,152,154,156,-1,-1,-1,-1,158,-1,-1,-1,-1,-1,-1,-1,160,-1,-1,-1,-1,-1,-1,-1,-1,-1,-1,-1,-1,-1,-1,-1,-1,-1,-1,-1,-1,-1,-1,-1,-1,-1,-1,-1,-1,-1,-1,-1,-1,-1,-1,-1,-1,-1,-1,-1,-1,-1,-1],"split_conditions":[5.176667E2,1.27E2,2.3E2,3.7E1,2.78E2,2.4E2,3.1E1,1.31E1,7.3E1,1.9E2,4.1E2,1.6E2,4.5E1,4.6E1,1.9421194E2,5.5E0,2.4E1,5.3E1,1E2,1.6E2,2.42E2,3.25E2,3.4744534E2,2.6133015E1,3.0227057E1,1.2933333E1,1.2933333E1,3.3962234E1,8.867952E1,4.6153846E-1,4.4897144E1,8.164966E-1,8.5E0,1.805E1,3E1,4.4E1,6.1E1,8.5E1,1.11E2,1.5E2,1.7277E2,2.11E2,9.376388E0,1.1049769E1,1.3521167E1,1.5349558E1,1.6E2,3.4759163E1,7.1E1,4.2837154E1,9.743073E1,4.4897144E1,6.3010937E1,1.04380394E2,3.056566E2,2E0,4E0,6.5E0,1.005E1,1.566E1,2.137E1,2.7E1,3.4E1,4E1,5E1,5.605E1,6.8E1,7.9E1,9E1,1.05E2,1.2E2,1.35E2,5.0170527E0,5.501045E0,6.1490893E0,6.99167E0,7.988897E0,1.7900068E1,2.0393244E1,1.25E2,6.3225933E1,8.20411E1,1.5732657E2,-1.1444407E0,-1.1035116E0,-1.0619472E0,4.39E0,-9.4084805E-1,7.5E0,9.08E0,1.2E1,1.422E1,1.711E1,2.001E1,2.3E1,2.451E1,2.8E1,3.2E1,3.6E1,3.8E1,4.102E1,4.7E1,5.15E1,5.5E1,6E1,6.5E1,1.6704903E0,1.8876135E0,2.0999734E0,2.305055E0,9.4E1,2.9009244E0,3.116902E0,3.4467697E0,3.824078E0,4.1254954E0,4.5078807E0,3.4306225E1,2.3E2,-1.0214138E0,-9.8152065E-1,-9.002566E-1,-8.5990757E-1,-8.2008296E-1,-7.804003E-1,-7.390598E-1,-6.7385924E-1,-6.170873E-1,-5.753616E-1,-5.0088954E-1,-4.5389968E-1,-3.8249022E-1,-3.3276916E-1,-2.8685853E-1,-2.4755333E-1,-2.0880555E-1,-1.4216389E-1,-8.727443E-2,-2.399769E-2,5.5423897E-2,1.4592896E-1,2.2475965E-1,2.864631E-1,3.1701818E-1,3.791394E-1,4.6504503E-1,5.5284685E-1,6.7528504E-1,7.584442E-1,8.6424255E-1,9.3177074E-1,9.810896E-1,1.06446E0,1.15733E0,1.259697E0,1.3417218E0,1.4831299E0,2.510783E0,2.7133064E0,3.299188E1,5.3693127E1],"split_indices":[24,2,15,2,2,25,17,2,2,2,2,25,17,0,20,2,2,2,2,2,2,2,24,0,0,13,13,0,0,19,22,5,2,2,2,2,2,2,2,2,2,2,0,0,0,0,25,0,0,0,0,22,0,0,0,0,2,24,2,2,2,2,2,2,2,2,2,2,2,2,2,2,0,0,0,0,0,0,0,15,0,0,0,0,0,0,2,0,2,2,2,2,2,2,2,2,2,2,2,2,2,2,2,2,2,2,0,0,0,0,2,0,0,0,0,0,0,0,4,0,0,0,0,0,0,0,0,0,0,0,0,0,0,0,0,0,0,0,0,0,0,0,0,0,0,0,0,0,0,0,0,0,0,0,0,0,0,0,0,0,0],"split_type":[0,0,0,0,0,0,0,0,0,0,0,0,0,0,0,0,0,0,0,0,0,0,0,0,0,0,0,0,0,0,0,0,0,0,0,0,0,0,0,0,0,0,0,0,0,0,0,0,0,0,0,0,0,0,0,0,0,0,0,0,0,0,0,0,0,0,0,0,0,0,0,0,0,0,0,0,0,0,0,0,0,0,0,0,0,0,0,0,0,0,0,0,0,0,0,0,0,0,0,0,0,0,0,0,0,0,0,0,0,0,0,0,0,0,0,0,0,0,0,0,0,0,0,0,0,0,0,0,0,0,0,0,0,0,0,0,0,0,0,0,0,0,0,0,0,0,0,0,0,0,0,0,0,0,0,0,0,0,0,0,0],"sum_hessian":[1.34724E5,1.34261E5,4.63E2,1.29286E5,4.975E3,4.08E2,5.5E1,1.12098E5,1.7188E4,3.616E3,1.359E3,2.04E2,2.04E2,2.7E1,2.8E1,7.8663E4,3.3435E4,1.2271E4,4.917E3,2.189E3,1.427E3,8.85E2,4.74E2,9.4E1,1.1E2,1.82E2,2.2E1,6E0,2.1E1,1.7E1,1.1E1,4.976E4,2.8903E4,2.0634E4,1.2801E4,7.194E3,5.077E3,3.114E3,1.803E3,1.211E3,9.78E2,9.78E2,4.49E2,4.41E2,4.44E2,4.7E1,4.27E2,5.6E1,1.26E2,6E0,1.6E1,1.4E1,3E0,4E0,7E0,3.0115E4,1.9645E4,1.559E4,1.3313E4,1.2523E4,8.111E3,7.146E3,5.655E3,4.215E3,2.979E3,2.644E3,2.433E3,1.602E3,1.512E3,9.03E2,9E2,8.65E2,3.46E2,5.97E2,3.81E2,5.05E2,4.73E2,2.98E2,1.29E2,6.5E1,6.1E1,4E0,1E1,2.0285E4,9.83E3,7.79E3,1.1855E4,7.542E3,8.048E3,6.261E3,7.052E3,6.736E3,5.787E3,4.55E3,3.561E3,3.878E3,3.268E3,3.619E3,2.036E3,1.861E3,2.354E3,1.658E3,1.321E3,1.501E3,1.143E3,1.535E3,8.98E2,8.78E2,7.24E2,6.15E2,8.97E2,4.12E2,4.91E2,4.49E2,4.51E2,2.75E2,5.9E2,3E1,3.5E1,6.012E3,5.843E3,4.506E3,3.542E3,3.108E3,3.153E3,6.179E3,8.73E2,4.498E3,2.238E3,3.127E3,2.66E3,2.736E3,1.814E3,7.95E2,2.766E3,1.352E3,2.526E3,7.71E2,2.497E3,1.625E3,1.994E3,1.355E3,6.81E2,3.5E2,1.511E3,1.021E3,1.333E3,7.72E2,8.86E2,1.032E3,2.89E2,3.65E2,1.136E3,5.42E2,6.01E2,5.59E2,9.76E2,4.52E2,4.45E2,9E0,2.6E1],"tree_param":{"num_deleted":"0","num_feature":"29","num_nodes":"161","size_leaf_vector":"1"}},{"base_weights":[-6.409241E-2,-3.160941E0,9.6816656E2,-9.416931E0,1.6196921E2,7.655321E2,2.3912788E3,-1.4904436E1,2.6386742E1,1.2003279E2,2.7316754E2,5.677673E2,1.0420587E3,1.2294591E3,3.550493E3,-1.8935848E1,-5.164021E0,1.692834E1,5.0003273E1,9.723351E1,1.5407541E2,2.3350708E2,3.4729507E2,2.2606333E1,5.834808E2,7.926087E2,1.3148209E3,2.3437216E1,1.4607047E3,2.940359E3,2.762482E2,-2.070091E1,-1.5954631E1,-8.587826E0,1.6416024E-1,1.1246756E1,2.4878782E1,4.2367245E1,6.336392E1,8.689053E1,1.09521416E2,1.4247803E2,8.92036E0,1.050003E1,1.2826695E1,3.4024365E2,2.0277266E1,2.5731695E1,3.0813246E1,2.1893934E1,8.5139056E2,4.184637E1,1.4793651E3,4.3634087E1,7.949566E1,2.2642781E2,1.22562035E2,-2.1493351E1,-1.949377E1,-1.7281115E1,-1.4387233E1,-1.0263255E1,-5.953952E0,-2.0415506E0,2.977105E0,8.536229E0,1.5045692E1,2.124887E1,2.8893728E1,3.7714233E1,4.727735E1,5.745653E1,6.908941E1,8.34334E1,4.768203E0,5.2307463E0,5.843837E0,6.646962E0,7.5871253E0,1.5981707E1,3.558111E2,2.894201E1,9.140569E2,1.328856E3,1.9936589E3,-1.0872215E0,-1.0483894E0,-1.008882E0,-1.9037415E1,-8.9264804E-1,-1.6711384E1,-1.5123187E1,-1.3722786E1,-1.13345E1,-8.980907E0,-6.8113995E0,-4.836078E0,-3.1487756E0,-7.325765E-1,1.9963126E0,4.6758437E0,7.3290763E0,1.0137807E1,1.3687152E1,1.6734732E1,2.0140612E1,1.1761025E0,2.725346E1,1.5885686E0,1.793595E0,1.9935969E0,2.190955E0,4.968138E1,2.7561433E0,2.9627006E0,3.2719162E0,3.6269925E0,3.9182994E0,4.285358E0,1.4613097E1,1.8321213E1,7.792421E2,1.0613373E3,3.2807224E1,6.810364E1,4.7131798E1,1.1547103E2,-9.695428E-1,-9.3159544E-1,-8.5327256E-1,-8.136613E-1,-7.7506924E-1,-7.370178E-1,-6.972329E-1,-6.11329E-1,-5.8275133E-1,-5.3860515E-1,-4.6821102E-1,-4.279271E-1,-3.579192E-1,-3.1136724E-1,-2.690764E-1,-2.3518553E-1,-1.8017237E-1,-1.15700364E-1,-5.5383444E-2,1.3504397E-4,5.3038258E-2,1.3888301E-1,2.1414748E-1,2.721727E-1,3.350407E-1,4.044469E-1,4.776143E-1,5.387299E-1,6.581865E-1,7.454588E-1,8.222917E-1,8.84906E-1,9.326208E-1,1.0253191E0,1.275095E0,1.4103246E0,2.387349E0,2.575826E0,1.9515951E1,4.0256023E1,3.9678402E1,6.1343E1],"categories":[],"categories_nodes":[],"categories_segments":[],"categories_sizes":[],"default_left":[0,0,0,0,0,0,0,0,0,0,0,0,0,0,0,0,0,0,0,0,0,0,0,0,0,0,0,0,0,0,0,0,0,0,0,0,0,0,0,0,0,0,0,0,0,0,0,0,0,0,0,0,0,0,0,0,0,0,0,0,0,0,0,0,0,0,0,0,0,0,0,0,0,0,0,0,0,0,0,0,0,0,0,0,0,0,0,0,0,0,0,0,0,0,0,0,0,0,0,0,0,0,0,0,0,0,0,0,0,0,0,0,0,0,0,0,0,0,0,0,0,0,0,0,0,0,0,0,0,0,0,0,0,0,0,0,0,0,0,0,0,0,0,0,0,0,0,0,0,0,0,0,0,0,0,0,0,0,0,0,0,0,0,0,0,0,0,0,0],"id":5,"left_children":[1,3,5,7,9,11,13,15,17,19,21,23,25,27,29,31,33,35,37,39,41,43,45,-1,47,49,51,-1,53,55,-1,57,59,61,63,65,67,69,71,73,75,77,-1,-1,-1,79,-1,-1,-1,-1,81,-1,83,-1,-1,-1,-1,85,87,89,91,93,95,97,99,101,103,105,107,109,111,113,115,117,-1,-1,-1,-1,-1,-1,119,-1,121,123,125,-1,-1,-1,127,-1,129,131,133,135,137,139,141,143,145,147,149,151,153,155,157,159,-1,161,-1,-1,-1,-1,163,-1,-1,-1,-1,-1,-1,-1,-1,165,167,-1,-1,-1,-1,-1,-1,-1,-1,-1,-1,-1,-1,-1,-1,-1,-1,-1,-1,-1,-1,-1,-1,-1,-1,-1,-1,-1,-1,-1,-1,-1,-1,-1,-1,-1,-1,-1,-1,-1,-1,-1,-1,-1,-1,-1,-1],"loss_changes":[4.0346125E8,1.3856176E8,1.2188051E8,2.5390968E7,2.2798496E7,2.002528E7,6.701459E7,4.400152E6,3.835605E6,2.745752E6,3.858352E6,1.39488E5,9.571968E6,4.240648E6,1.5075744E7,4.16708E5,5.984343E5,5.5374025E5,4.98337E5,2.61554E5,3.7666E5,4.2024E5,5.294E4,0E0,1.16092E5,1.378604E6,4.501968E6,0E0,2.07792E5,5.988704E6,0E0,4.7194E4,6.1037E4,8.806675E4,7.963527E4,7.3545125E4,7.3868E4,6.96735E4,5.6357E4,2.6094E4,2.2793E4,6.552E4,0E0,0E0,0E0,2.1272E4,0E0,0E0,0E0,0E0,6.8342E5,0E0,1.452904E6,0E0,0E0,0E0,0E0,3.504E3,5.772E3,4.898E3,6.40025E3,1.666225E4,7.4106875E3,1.0423779E4,9.388523E3,8.0014688E3,6.601375E3,6.29375E3,1.0569875E4,4.96625E3,1.0434E4,4.305E2,6.59E3,2.8765E3,0E0,0E0,0E0,0E0,0E0,0E0,4.8642E4,0E0,2.84688E5,8.9272E4,1.141464E6,0E0,0E0,0E0,1.3345E3,0E0,9.62E2,6.95625E2,2.18875E3,1.0703125E3,8.1821875E2,8.443594E2,2.1735156E2,1.4701562E3,9.0969165E2,2.6121445E3,5.981992E2,1.0833828E3,5.635781E2,8.6015625E2,7.375E1,6.010625E2,0E0,1.86425E3,0E0,0E0,0E0,0E0,6.825E2,0E0,0E0,0E0,0E0,0E0,0E0,0E0,0E0,1.776E4,8.9928E4,0E0,0E0,0E0,0E0,0E0,0E0,0E0,0E0,0E0,0E0,0E0,0E0,0E0,0E0,0E0,0E0,0E0,0E0,0E0,0E0,0E0,0E0,0E0,0E0,0E0,0E0,0E0,0E0,0E0,0E0,0E0,0E0,0E0,0E0,0E0,0E0,0E0,0E0,0E0,0E0,0E0,0E0,0E0,0E0,0E0,0E0],"parents":[2147483647,0,0,1,1,2,2,3,3,4,4,5,5,6,6,7,7,8,8,9,9,10,10,11,11,12,12,13,13,14,14,15,15,16,16,17,17,18,18,19,19,20,20,21,21,22,22,24,24,25,25,26,26,28,28,29,29,31,31,32,32,33,33,34,34,35,35,36,36,37,37,38,38,39,39,40,40,41,41,45,45,50,50,52,52,57,57,58,58,59,59,60,60,61,61,62,62,63,63,64,64,65,65,66,66,67,67,68,68,69,69,70,70,71,71,72,72,73,73,80,80,82,82,83,83,84,84,88,88,90,90,91,91,92,92,93,93,94,94,95,95,96,96,97,97,98,98,99,99,100,100,101,101,102,102,103,103,104,104,105,105,107,107,112,112,121,121,122,122],"right_children":[2,4,6,8,10,12,14,16,18,20,22,24,26,28,30,32,34,36,38,40,42,44,46,-1,48,50,52,-1,54,56,-1,58,60,62,64,66,68,70,72,74,76,78,-1,-1,-1,80,-1,-1,-1,-1,82,-1,84,-1,-1,-1,-1,86,88,90,92,94,96,98,100,102,104,106,108,110,112,114,116,118,-1,-1,-1,-1,-1,-1,120,-1,122,124,126,-1,-1,-1,128,-1,130,132,134,136,138,140,142,144,146,148,150,152,154,156,158,160,-1,162,-1,-1,-1,-1,164,-1,-1,-1,-1,-1,-1,-1,-1,166,168,-1,-1,-1,-1,-1,-1,-1,-1,-1,-1,-1,-1,-1,-1,-1,-1,-1,-1,-1,-1,-1,-1,-1,-1,-1,-1,-1,-1,-1,-1,-1,-1,-1,-1,-1,-1,-1,-1,-1,-1,-1,-1,-1,-1,-1,-1],"split_conditions":[5.95E2,1.27E2,2.3E2,3.7E1,2.78E2,8E1,3.1E1,1.4E1,7.3E1,1.9E2,4.1E2,2.5408064E2,7.8E1,4.4E1,1.33E2,5.5E0,2.4E1,5.3E1,1E2,1.6E2,2.42E2,3.25E2,4.125E2,2.2606333E1,1.6E2,2.5408064E2,1.2933333E1,2.3437216E1,2.9727272E1,3.4483537E-1,2.762482E2,2.25E0,9E0,1.9E1,3E1,4.4E1,6.1E1,8.5E1,1.11E2,1.5E2,1.7277E2,2.11E2,8.92036E0,1.050003E1,1.2826695E1,1.3E2,2.0277266E1,2.5731695E1,3.0813246E1,2.1893934E1,2.4E2,4.184637E1,1.57E2,4.3634087E1,7.949566E1,2.2642781E2,1.22562035E2,2E0,4E0,7E0,1.089E1,1.603E1,2.2E1,2.7E1,3.4E1,4.1E1,5E1,5.8E1,6.8E1,7.9E1,9E1,1.05E2,1.2E2,1.35E2,4.768203E0,5.2307463E0,5.843837E0,6.646962E0,7.5871253E0,1.5981707E1,3.4744534E2,2.894201E1,4.4897144E1,3.284971E-1,3.5E1,-1.0872215E0,-1.0483894E0,-1.008882E0,5E0,-8.9264804E-1,8E0,1E1,1.3E1,1.5E1,1.8E1,2.1E1,2.3E1,2.6E1,2.9E1,3.2E1,3.6E1,3.9E1,4.3E1,4.8E1,5.15E1,5.5E1,1.1761025E0,6.5E1,1.5885686E0,1.793595E0,1.9935969E0,2.190955E0,9.4E1,2.7561433E0,2.9627006E0,3.2719162E0,3.6269925E0,3.9182994E0,4.285358E0,1.4613097E1,1.8321213E1,8.5E1,6.2E1,3.2807224E1,6.810364E1,4.7131798E1,1.1547103E2,-9.695428E-1,-9.3159544E-1,-8.5327256E-1,-8.136613E-1,-7.7506924E-1,-7.370178E-1,-6.972329E-1,-6.11329E-1,-5.8275133E-1,-5.3860515E-1,-4.6821102E-1,-4.279271E-1,-3.579192E-1,-3.1136724E-1,-2.690764E-1,-2.3518553E-1,-1.8017237E-1,-1.15700364E-1,-5.5383444E-2,1.3504397E-4,5.3038258E-2,1.3888301E-1,2.1414748E-1,2.721727E-1,3.350407E-1,4.044469E-1,4.776143E-1,5.387299E-1,6.581865E-1,7.454588E-1,8.222917E-1,8.84906E-1,9.326208E-1,1.0253191E0,1.275095E0,1.4103246E0,2.387349E0,2.575826E0,1.9515951E1,4.0256023E1,3.9678402E1,6.1343E1],"split_indices":[2,2,15,2,2,27,17,2,2,2,2,3,0,0,0,24,2,2,2,2,2,2,8,0,25,3,13,0,22,21,0,8,2,2,2,2,2,2,2,2,2,2,0,0,0,25,0,0,0,0,25,0,15,0,0,0,0,0,2,2,2,2,2,2,2,2,2,2,2,2,2,2,2,2,0,0,0,0,0,0,24,0,22,21,17,0,0,0,2,0,2,2,2,2,2,2,2,2,2,2,2,2,2,2,2,2,0,2,0,0,0,0,2,0,0,0,0,0,0,0,0,15,0,0,0,0,0,0,0,0,0,0,0,0,0,0,0,0,0,0,0,0,0,0,0,0,0,0,0,0,0,0,0,0,0,0,0,0,0,0,0,0,0,0,0,0,0,0,0],"split_type":[0,0,0,0,0,0,0,0,0,0,0,0,0,0,0,0,0,0,0,0,0,0,0,0,0,0,0,0,0,0,0,0,0,0,0,0,0,0,0,0,0,0,0,0,0,0,0,0,0,0,0,0,0,0,0,0,0,0,0,0,0,0,0,0,0,0,0,0,0,0,0,0,0,0,0,0,0,0,0,0,0,0,0,0,0,0,0,0,0,0,0,0,0,0,0,0,0,0,0,0,0,0,0,0,0,0,0,0,0,0,0,0,0,0,0,0,0,0,0,0,0,0,0,0,0,0,0,0,0,0,0,0,0,0,0,0,0,0,0,0,0,0,0,0,0,0,0,0,0,0,0,0,0,0,0,0,0,0,0,0,0,0,0,0,0,0,0,0,0],"sum_hessian":[1.34554E5,1.34126E5,4.28E2,1.29231E5,4.895E3,3.76E2,5.2E1,1.12057E5,1.7174E4,3.556E3,1.339E3,2.21E2,1.55E2,2.7E1,2.5E1,7.9254E4,3.2803E4,1.2264E4,4.91E3,2.132E3,1.424E3,8.75E2,4.64E2,3E1,1.91E2,8.3E1,7.2E1,7E0,2E1,2.1E1,4E0,4.9777E4,2.9477E4,1.997E4,1.2833E4,7.154E3,5.11E3,3.127E3,1.783E3,1.162E3,9.7E2,9.69E2,4.55E2,4.38E2,4.37E2,4.2E2,4.4E1,6.7E1,1.24E2,1.3E1,7E1,2E1,5.2E1,5E0,1.5E1,3E0,1.8E1,3.004E4,1.9737E4,1.596E4,1.3517E4,1.2204E4,7.766E3,7.193E3,5.64E3,4.177E3,2.977E3,2.687E3,2.423E3,1.61E3,1.517E3,8.83E2,9E2,8.33E2,3.29E2,5.91E2,3.79E2,4.85E2,4.84E2,1.9E2,2.3E2,1.5E1,5.5E1,4.3E1,9E0,2.0301E4,9.739E3,7.882E3,1.1855E4,7.95E3,8.01E3,6.403E3,7.114E3,6.645E3,5.559E3,4.392E3,3.374E3,3.896E3,3.297E3,3.577E3,2.063E3,2.385E3,1.792E3,1.655E3,1.322E3,1.813E3,8.74E2,1.55E3,8.73E2,8.78E2,7.32E2,6.3E2,8.87E2,3.98E2,4.85E2,4.47E2,4.53E2,2.69E2,5.64E2,3.7E1,1.93E2,3.2E1,2.3E1,3E0,4E1,3E0,6E0,6.309E3,5.546E3,4.409E3,3.601E3,3.201E3,3.202E3,6.188E3,9.26E2,4.22E3,2.425E3,2.903E3,2.656E3,2.748E3,1.644E3,6.51E2,2.723E3,2.52E3,1.376E3,2.183E3,1.114E3,1.629E3,1.948E3,1.369E3,6.94E2,1.311E3,1.074E3,9.42E2,8.5E2,1.167E3,4.88E2,1.031E3,2.91E2,3.68E2,1.445E3,5.56E2,9.94E2,4.45E2,4.42E2,3E0,2.9E1,1.1E1,1.2E1],"tree_param":{"num_deleted":"0","num_feature":"29","num_nodes":"169","size_leaf_vector":"1"}},{"base_weights":[2.0122655E-2,-3.0015633E0,9.009931E2,-8.960789E0,1.5326155E2,7.173647E2,2.1544753E3,-1.4166151E1,2.5022844E1,1.137284E2,2.5982373E2,5.3750464E2,9.561193E2,1.6520084E3,2.3253654E2,-1.8028633E1,-5.026592E0,1.6054731E1,4.7517723E1,9.2129524E1,1.4631873E2,2.2232744E2,3.314505E2,2.5578596E1,3.0649399E1,6.7572656E2,1.1495037E3,7.0583295E2,1.9073242E3,-1.9666012E1,-1.521595E1,-8.243541E0,1.26743E-1,1.0644786E1,2.365708E1,4.022344E1,6.024063E1,8.265432E1,1.0396876E2,1.3521794E2,8.462949E0,9.966034E0,1.2198235E1,1.4948273E1,3.4103537E2,2.0876585E1,7.374282E2,4.1622036E1,1.3201766E3,2.3358105E1,4.333134E1,2.8810068E1,2.0049547E3,-2.0417955E1,-1.8519602E1,-1.644105E1,-1.3783368E1,-9.827333E0,-5.653361E0,-1.9494016E0,2.8058863E0,8.121624E0,1.4236169E1,2.017471E1,2.7479343E1,3.57745E1,4.5026787E1,5.455702E1,6.5681725E1,7.928536E1,4.5294695E0,4.9621153E0,5.553225E0,6.3165517E0,7.216326E0,3.2287735E2,1.8060495E1,2.8379454E1,8.1601416E2,3.7733555E1,1.389978E3,4.4684967E1,1.0406018E2,-1.032863E0,-9.95984E-1,-9.592088E-1,-1.8096926E1,-8.493841E-1,-1.5931247E1,-1.4402911E1,-1.3152961E1,-1.0815288E1,-8.532999E0,-6.4916806E0,-4.6260924E0,-2.9905975E0,-6.950126E-1,1.3346533E0,3.8194826E0,6.6277843E0,9.308356E0,1.2975552E1,1.5900093E1,1.8848038E1,2.1900436E1,2.584252E1,1.5082935E0,1.7028893E0,1.8942986E0,2.0824025E0,4.7225204E1,2.6178768E0,2.8133442E0,3.1114001E0,3.4495118E0,3.7264454E0,4.068645E0,1.5451636E1,1.8989803E1,2.6364332E1,4.3376064E1,5.3207745E1,1.5109169E3,-9.2218506E-1,-8.857936E-1,-8.125314E-1,-7.7613133E-1,-7.4026436E-1,-7.0255536E-1,-6.650826E-1,-6.075132E-1,-5.556405E-1,-5.1156145E-1,-4.4489145E-1,-4.0669975E-1,-3.42176E-1,-3.0018052E-1,-2.584056E-1,-2.2343619E-1,-1.8943827E-1,-1.2733431E-1,-8.002794E-2,-2.1041716E-2,3.211881E-2,8.869019E-2,1.5676706E-1,2.369624E-1,2.8458348E-1,3.4178817E-1,4.1979486E-1,4.990313E-1,6.074931E-1,6.847188E-1,7.807762E-1,8.4104997E-1,8.85812E-1,9.595928E-1,1.0453104E0,1.1382531E0,1.2104512E0,1.3381152E0,2.266571E0,2.447853E0,7.8476585E1,4.1092804E1],"categories":[],"categories_nodes":[],"categories_segments":[],"categories_sizes":[],"default_left":[0,0,0,0,0,0,0,0,0,0,0,0,0,0,0,0,0,0,0,0,0,0,0,0,0,0,0,0,0,0,0,0,0,0,0,0,0,0,0,0,0,0,0,0,0,0,0,0,0,0,0,0,0,0,0,0,0,0,0,0,0,0,0,0,0,0,0,0,0,0,0,0,0,0,0,0,0,0,0,0,0,0,0,0,0,0,0,0,0,0,0,0,0,0,0,0,0,0,0,0,0,0,0,0,0,0,0,0,0,0,0,0,0,0,0,0,0,0,0,0,0,0,0,0,0,0,0,0,0,0,0,0,0,0,0,0,0,0,0,0,0,0,0,0,0,0,0,0,0,0,0,0,0,0,0,0,0,0,0,0,0,0,0,0,0],"id":6,"left_children":[1,3,5,7,9,11,13,15,17,19,21,23,25,27,-1,29,31,33,35,37,39,41,43,-1,-1,45,47,49,51,53,55,57,59,61,63,65,67,69,71,73,-1,-1,-1,-1,75,-1,77,-1,79,-1,-1,-1,81,83,85,87,89,91,93,95,97,99,101,103,105,107,109,111,113,115,-1,-1,-1,-1,-1,117,-1,-1,119,-1,121,-1,-1,-1,-1,-1,123,-1,125,127,129,131,133,135,137,139,141,143,145,147,149,151,153,155,157,159,-1,-1,-1,-1,161,-1,-1,-1,-1,-1,-1,-1,-1,-1,-1,-1,163,-1,-1,-1,-1,-1,-1,-1,-1,-1,-1,-1,-1,-1,-1,-1,-1,-1,-1,-1,-1,-1,-1,-1,-1,-1,-1,-1,-1,-1,-1,-1,-1,-1,-1,-1,-1,-1,-1,-1,-1,-1,-1],"loss_changes":[3.665136E8,1.24947016E8,1.020329E8,2.2863952E7,2.0735008E7,1.6405248E7,6.3810624E7,3.95652E6,3.462645E6,2.518472E6,3.506344E6,1.30648E5,8.332624E6,1.0490576E7,0E0,3.62536E5,5.5200006E5,5.0463575E5,4.5166E5,2.34368E5,3.41748E5,3.88404E5,3.9956E4,0E0,0E0,8.2309E5,4.203992E6,5.5533E4,3.782896E6,4.2542E4,5.06545E4,8.404025E4,7.119173E4,6.4890312E4,6.73645E4,6.49055E4,5.1482E4,2.5094E4,2.112E4,6.0258E4,0E0,0E0,0E0,0E0,9.688E3,0E0,2.8413E5,0E0,1.398136E6,0E0,0E0,0E0,1.10536E6,3.169E3,5.192E3,4.08E3,5.03E3,1.6171375E4,6.6696875E3,9.415586E3,8.327414E3,7.4107812E3,5.9975E3,5.705125E3,9.900375E3,4.578125E3,9.114E3,3.415E2,6.035E3,2.4195E3,0E0,0E0,0E0,0E0,0E0,3.3074E4,0E0,0E0,7.7804E4,0E0,5.19744E5,0E0,0E0,0E0,0E0,0E0,1.266E3,0E0,8.01625E2,7.42375E2,8.25625E2,1.1370625E3,7.28125E2,6.929531E2,2.7446875E2,1.3857227E3,8.115001E2,6.9207495E2,2.065914E3,3.2391406E2,1.3540625E3,8.335E2,6.715625E1,2.47375E2,5.134375E2,1.6261875E3,0E0,0E0,0E0,0E0,7.1325E2,0E0,0E0,0E0,0E0,0E0,0E0,0E0,0E0,0E0,0E0,0E0,2.0424E5,0E0,0E0,0E0,0E0,0E0,0E0,0E0,0E0,0E0,0E0,0E0,0E0,0E0,0E0,0E0,0E0,0E0,0E0,0E0,0E0,0E0,0E0,0E0,0E0,0E0,0E0,0E0,0E0,0E0,0E0,0E0,0E0,0E0,0E0,0E0,0E0,0E0,0E0,0E0,0E0,0E0,0E0],"parents":[2147483647,0,0,1,1,2,2,3,3,4,4,5,5,6,6,7,7,8,8,9,9,10,10,11,11,12,12,13,13,15,15,16,16,17,17,18,18,19,19,20,20,21,21,22,22,25,25,26,26,27,27,28,28,29,29,30,30,31,31,32,32,33,33,34,34,35,35,36,36,37,37,38,38,39,39,44,44,46,46,48,48,52,52,53,53,54,54,55,55,56,56,57,57,58,58,59,59,60,60,61,61,62,62,63,63,64,64,65,65,66,66,67,67,68,68,69,69,75,75,78,78,80,80,86,86,88,88,89,89,90,90,91,91,92,92,93,93,94,94,95,95,96,96,97,97,98,98,99,99,100,100,101,101,102,102,103,103,104,104,105,105,110,110,122,122],"right_children":[2,4,6,8,10,12,14,16,18,20,22,24,26,28,-1,30,32,34,36,38,40,42,44,-1,-1,46,48,50,52,54,56,58,60,62,64,66,68,70,72,74,-1,-1,-1,-1,76,-1,78,-1,80,-1,-1,-1,82,84,86,88,90,92,94,96,98,100,102,104,106,108,110,112,114,116,-1,-1,-1,-1,-1,118,-1,-1,120,-1,122,-1,-1,-1,-1,-1,124,-1,126,128,130,132,134,136,138,140,142,144,146,148,150,152,154,156,158,160,-1,-1,-1,-1,162,-1,-1,-1,-1,-1,-1,-1,-1,-1,-1,-1,164,-1,-1,-1,-1,-1,-1,-1,-1,-1,-1,-1,-1,-1,-1,-1,-1,-1,-1,-1,-1,-1,-1,-1,-1,-1,-1,-1,-1,-1,-1,-1,-1,-1,-1,-1,-1,-1,-1,-1,-1,-1,-1],"split_conditions":[5.95E2,1.27E2,2.3E2,3.7E1,2.78E2,8E1,6.3E1,1.31E1,7.3E1,1.9E2,4.1E2,2.4E2,3.9E1,2.7E1,2.3253654E2,5.5E0,2.4E1,5.3E1,1E2,1.6E2,2.42E2,3.25E2,1.636313E2,2.5578596E1,3.0649399E1,4.125E2,1.7146206E1,1.9E1,5.35E1,2.25E0,8.5E0,1.9E1,3E1,4.4E1,6.1E1,8.5E1,1.11E2,1.5E2,1.7277E2,2.11E2,8.462949E0,9.966034E0,1.2198235E1,1.4948273E1,1.3E2,2.0876585E1,9.699E1,4.1622036E1,8.125E1,2.3358105E1,4.333134E1,2.8810068E1,2.2E1,2E0,3.33E0,6.5E0,1.089E1,1.603E1,2.137E1,2.7E1,3.3E1,4E1,5E1,5.605E1,6.8E1,7.9E1,9E1,1.05E2,1.2E2,1.35E2,4.5294695E0,4.9621153E0,5.553225E0,6.3165517E0,7.216326E0,4.125E2,1.8060495E1,2.8379454E1,1.8E1,3.7733555E1,3.8643193E-1,4.4684967E1,1.0406018E2,-1.032863E0,-9.95984E-1,-9.592088E-1,4.38E0,-8.493841E-1,7.5E0,9.08E0,1.2E1,1.5E1,1.8E1,2.001E1,2.3E1,2.451E1,2.8E1,3.1E1,3.5E1,3.8E1,4.102E1,4.7E1,5.15E1,5.5E1,6E1,6.5E1,1.5082935E0,1.7028893E0,1.8942986E0,2.0824025E0,9.4E1,2.6178768E0,2.8133442E0,3.1114001E0,3.4495118E0,3.7264454E0,4.068645E0,1.5451636E1,1.8989803E1,2.6364332E1,4.3376064E1,5.3207745E1,8.966376E-1,-9.2218506E-1,-8.857936E-1,-8.125314E-1,-7.7613133E-1,-7.4026436E-1,-7.0255536E-1,-6.650826E-1,-6.075132E-1,-5.556405E-1,-5.1156145E-1,-4.4489145E-1,-4.0669975E-1,-3.42176E-1,-3.0018052E-1,-2.584056E-1,-2.2343619E-1,-1.8943827E-1,-1.2733431E-1,-8.002794E-2,-2.1041716E-2,3.211881E-2,8.869019E-2,1.5676706E-1,2.369624E-1,2.8458348E-1,3.4178817E-1,4.1979486E-1,4.990313E-1,6.074931E-1,6.847188E-1,7.807762E-1,8.4104997E-1,8.85812E-1,9.595928E-1,1.0453104E0,1.1382531E0,1.2104512E0,1.3381152E0,2.266571E0,2.447853E0,7.8476585E1,4.1092804E1],"split_indices":[2,2,15,2,2,27,18,2,2,2,2,25,18,18,0,2,2,2,2,2,2,2,3,0,0,8,16,17,7,8,2,2,2,2,2,2,2,2,2,2,0,0,0,0,25,0,15,0,7,0,0,0,17,2,2,2,2,2,2,2,2,2,2,2,2,2,2,2,2,2,0,0,0,0,0,8,0,0,17,0,21,0,0,0,0,0,24,0,2,2,2,2,2,2,2,2,2,2,2,2,2,2,2,2,2,2,0,0,0,0,2,0,0,0,0,0,0,0,0,0,0,0,21,0,0,0,0,0,0,0,0,0,0,0,0,0,0,0,0,0,0,0,0,0,0,0,0,0,0,0,0,0,0,0,0,0,0,0,0,0,0,0,0,0,0],"split_type":[0,0,0,0,0,0,0,0,0,0,0,0,0,0,0,0,0,0,0,0,0,0,0,0,0,0,0,0,0,0,0,0,0,0,0,0,0,0,0,0,0,0,0,0,0,0,0,0,0,0,0,0,0,0,0,0,0,0,0,0,0,0,0,0,0,0,0,0,0,0,0,0,0,0,0,0,0,0,0,0,0,0,0,0,0,0,0,0,0,0,0,0,0,0,0,0,0,0,0,0,0,0,0,0,0,0,0,0,0,0,0,0,0,0,0,0,0,0,0,0,0,0,0,0,0,0,0,0,0,0,0,0,0,0,0,0,0,0,0,0,0,0,0,0,0,0,0,0,0,0,0,0,0,0,0,0,0,0,0,0,0,0,0,0,0],"sum_hessian":[1.34624E5,1.34175E5,4.49E2,1.29247E5,4.928E3,3.93E2,5.6E1,1.1208E5,1.7167E4,3.596E3,1.332E3,2.26E2,1.67E2,4.8E1,8E0,7.8784E4,3.3296E4,1.2275E4,4.892E3,2.165E3,1.431E3,8.77E2,4.55E2,1.74E2,5.2E1,7E1,9.7E1,1.1E1,3.7E1,4.9792E4,2.8992E4,2.0499E4,1.2797E4,7.173E3,5.102E3,3.112E3,1.78E3,1.207E3,9.58E2,9.69E2,4.62E2,4.3E2,4.47E2,1.11E2,3.44E2,1.5E1,5.5E1,3.6E1,6.1E1,6E0,5E0,3E0,3.4E1,3.0059E4,1.9733E4,1.5622E4,1.337E4,1.2719E4,7.78E3,7.21E3,5.587E3,4.215E3,2.958E3,2.673E3,2.429E3,1.62E3,1.492E3,8.76E2,9.04E2,8.55E2,3.52E2,5.84E2,3.74E2,4.98E2,4.71E2,1.9E2,1.54E2,2E1,3.5E1,8E0,5.3E1,3E0,3.1E1,2.0279E4,9.78E3,7.654E3,1.2079E4,7.523E3,8.099E3,6.732E3,6.638E3,7.209E3,5.51E3,4.281E3,3.499E3,3.939E3,3.271E3,2.28E3,3.307E3,1.869E3,2.346E3,1.688E3,1.27E3,1.518E3,1.155E3,1.516E3,9.13E2,9.03E2,7.17E2,5.96E2,8.96E2,3.97E2,4.79E2,4.52E2,4.52E2,2.72E2,5.83E2,1.58E2,3.2E1,7E0,2.8E1,1.7E1,3.6E1,6.299E3,5.78E3,4.524E3,3.575E3,3.121E3,3.611E3,5.77E3,8.68E2,4.764E3,2.445E3,2.867E3,2.643E3,2.48E3,1.801E3,7.8E2,2.719E3,1.405E3,2.534E3,7.59E2,2.512E3,8.86E2,1.394E3,1.899E3,1.408E3,3.45E2,1.524E3,1.001E3,1.345E3,7.94E2,8.94E2,9.84E2,2.86E2,3.66E2,1.152E3,5.49E2,6.06E2,5.56E2,9.6E2,4.41E2,4.55E2,3.2E1,4E0],"tree_param":{"num_deleted":"0","num_feature":"29","num_nodes":"165","size_leaf_vector":"1"}},{"base_weights":[1.6822906E-1,-2.861384E0,8.969001E2,-8.520915E0,1.4574933E2,6.9339996E2,2.2182676E3,-1.3450801E1,2.3779205E1,1.0807842E2,2.4711371E2,5.1347284E2,9.4790314E2,1.8695703E3,2.5224658E2,-1.7092815E1,-4.684818E0,1.5384912E1,4.5570053E1,8.757964E1,1.3884409E2,2.1150183E2,3.1305756E2,2.0234304E1,5.2816394E2,6.946059E2,1.1865503E3,1.6106248E3,2.3842224E2,-1.8683384E1,-1.4403993E1,-7.757102E0,1.2523872E-1,1.01251335E1,2.2597338E1,3.858105E1,5.720192E1,7.841408E1,9.883155E1,1.285467E2,8.038293E0,9.488488E0,1.1596114E1,1.403526E1,1.6132282E1,4.845966E2,2.8429783E1,5.639844E2,8.34694E2,3.790579E1,1.3407162E3,7.129172E2,1.8915781E3,-1.9396732E1,-1.759289E1,-1.5597568E1,-1.2992481E1,-9.264043E0,-5.3738155E0,-1.8461132E0,2.6824822E0,7.6993704E0,1.3574346E1,1.9848787E1,2.7147947E1,3.4315273E1,4.2710762E1,5.191662E1,6.2341175E1,7.52478E1,4.3036213E0,4.713413E0,5.273914E0,6.00183E0,6.8474855E0,1.8923346E1,2.5344381E1,2.027365E1,6.224872E2,2.3067862E1,4.460335E1,1.1578086E3,1.8000509E3,1.825943E1,3.872721E1,1.9613889E3,5.122836E1,-9.8122245E-1,-9.461438E-1,-9.112197E-1,-1.7189388E1,-8.069226E-1,-1.5107853E1,-1.36518E1,-1.2390407E1,-1.0234654E1,-8.106185E0,-6.170618E0,-4.398103E0,-2.8393295E0,-6.636962E-1,1.7984213E0,4.2224655E0,6.289211E0,8.833611E0,1.1865921E1,1.4674457E1,1.8188692E1,2.1954113E1,1.2798027E0,1.4591427E0,1.6345361E0,1.8004073E0,1.9743675E0,4.4840786E1,2.4865077E0,2.6765473E0,2.9523048E0,3.2741597E0,3.541076E0,3.865093E0,2.4498869E1,3.5804268E1,5.2126648E1,7.803149E1,7.1588356E1,1.22743225E2,4.683505E1,1.0140892E2,-8.754056E-1,-8.407283E-1,-7.708811E-1,-7.3438025E-1,-6.994627E-1,-6.6502136E-1,-6.293315E-1,-5.5189955E-1,-5.2581954E-1,-4.8632774E-1,-4.2260638E-1,-3.862668E-1,-3.5846248E-1,-3.0065033E-1,-2.4598506E-1,-2.1233408E-1,-1.6267918E-1,-1.0345354E-1,-5.0054263E-2,1.1680513E-3,4.7601502E-2,1.2517111E-1,1.9289301E-1,2.4684143E-1,2.700883E-1,3.2464954E-1,3.9891616E-1,4.745566E-1,5.4093134E-1,6.070094E-1,6.743155E-1,7.551734E-1,8.415653E-1,9.2492974E-1,1.0620852E0,1.1511711E0,2.1529126E0,2.3271453E0],"categories":[],"categories_nodes":[],"categories_segments":[],"categories_sizes":[],"default_left":[0,0,0,0,0,0,0,0,0,0,0,0,0,0,0,0,0,0,0,0,0,0,0,0,0,0,0,0,0,0,0,0,0,0,0,0,0,0,0,0,0,0,0,0,0,0,0,0,0,0,0,0,0,0,0,0,0,0,0,0,0,0,0,0,0,0,0,0,0,0,0,0,0,0,0,0,0,0,0,0,0,0,0,0,0,0,0,0,0,0,0,0,0,0,0,0,0,0,0,0,0,0,0,0,0,0,0,0,0,0,0,0,0,0,0,0,0,0,0,0,0,0,0,0,0,0,0,0,0,0,0,0,0,0,0,0,0,0,0,0,0,0,0,0,0,0,0,0,0,0,0,0,0,0,0,0,0,0,0,0,0,0,0,0,0,0,0],"id":7,"left_children":[1,3,5,7,9,11,13,15,17,19,21,23,25,27,-1,29,31,33,35,37,39,41,43,-1,45,47,49,51,-1,53,55,57,59,61,63,65,67,69,71,73,-1,-1,-1,-1,-1,75,-1,77,79,-1,81,83,85,87,89,91,93,95,97,99,101,103,105,107,109,111,113,115,117,119,-1,-1,-1,-1,-1,-1,-1,-1,121,-1,-1,123,125,-1,-1,127,-1,-1,-1,-1,129,-1,131,133,135,137,139,141,143,145,147,149,151,153,155,157,159,161,163,-1,-1,-1,-1,-1,165,-1,-1,-1,-1,-1,-1,-1,-1,-1,-1,-1,-1,-1,-1,-1,-1,-1,-1,-1,-1,-1,-1,-1,-1,-1,-1,-1,-1,-1,-1,-1,-1,-1,-1,-1,-1,-1,-1,-1,-1,-1,-1,-1,-1,-1,-1,-1,-1,-1,-1,-1,-1],"loss_changes":[3.6550064E8,1.1277401E8,1.2027261E8,2.0568024E7,1.87564E7,1.7555168E7,4.970643E7,3.577592E6,3.127937E6,2.25062E6,3.061784E6,1.58552E5,8.96832E6,3.3604976E7,0E0,3.38314E5,4.861047E5,4.6823675E5,3.84423E5,2.1458E5,3.02786E5,3.41148E5,5.3608E4,0E0,8.0172E4,1.011284E6,4.399464E6,1.176632E7,0E0,3.8348E4,4.93765E4,7.2040375E4,6.464365E4,5.9658562E4,6.45835E4,5.09175E4,4.51825E4,2.2436E4,1.9276E4,5.3616E4,0E0,0E0,0E0,0E0,0E0,5.411E4,0E0,1.64795E5,3.80824E5,0E0,2.87252E6,1.7044E4,3.50672E5,2.869E3,4.6985E3,3.9755E3,5.18325E3,1.3733875E4,6.018828E3,8.501566E3,7.5913555E3,6.65425E3,5.363875E3,1.09555E4,5.430875E3,2.853125E3,8.56775E3,4.515E2,5.4285E3,2.2565E3,0E0,0E0,0E0,0E0,0E0,0E0,0E0,0E0,3.3497E4,0E0,0E0,4.62332E5,1.02172E5,0E0,0E0,4.95248E5,0E0,0E0,0E0,0E0,1.139E3,0E0,8.6175E2,5.73625E2,1.73275E3,8.52625E2,6.7246875E2,6.290625E2,2.54625E2,1.2483242E3,7.667023E2,2.1143867E3,5.1011328E2,3.0264062E2,1.2289219E3,1.9957812E2,7.05375E2,4.519375E2,5.94375E2,0E0,0E0,0E0,0E0,0E0,7.17625E2,0E0,0E0,0E0,0E0,0E0,0E0,0E0,0E0,0E0,0E0,0E0,0E0,0E0,0E0,0E0,0E0,0E0,0E0,0E0,0E0,0E0,0E0,0E0,0E0,0E0,0E0,0E0,0E0,0E0,0E0,0E0,0E0,0E0,0E0,0E0,0E0,0E0,0E0,0E0,0E0,0E0,0E0,0E0,0E0,0E0,0E0,0E0,0E0,0E0,0E0,0E0,0E0],"parents":[2147483647,0,0,1,1,2,2,3,3,4,4,5,5,6,6,7,7,8,8,9,9,10,10,11,11,12,12,13,13,15,15,16,16,17,17,18,18,19,19,20,20,21,21,22,22,24,24,25,25,26,26,27,27,29,29,30,30,31,31,32,32,33,33,34,34,35,35,36,36,37,37,38,38,39,39,45,45,47,47,48,48,50,50,51,51,52,52,53,53,54,54,55,55,56,56,57,57,58,58,59,59,60,60,61,61,62,62,63,63,64,64,65,65,66,66,67,67,68,68,69,69,78,78,81,81,82,82,85,85,90,90,92,92,93,93,94,94,95,95,96,96,97,97,98,98,99,99,100,100,101,101,102,102,103,103,104,104,105,105,106,106,107,107,108,108,114,114],"right_children":[2,4,6,8,10,12,14,16,18,20,22,24,26,28,-1,30,32,34,36,38,40,42,44,-1,46,48,50,52,-1,54,56,58,60,62,64,66,68,70,72,74,-1,-1,-1,-1,-1,76,-1,78,80,-1,82,84,86,88,90,92,94,96,98,100,102,104,106,108,110,112,114,116,118,120,-1,-1,-1,-1,-1,-1,-1,-1,122,-1,-1,124,126,-1,-1,128,-1,-1,-1,-1,130,-1,132,134,136,138,140,142,144,146,148,150,152,154,156,158,160,162,164,-1,-1,-1,-1,-1,166,-1,-1,-1,-1,-1,-1,-1,-1,-1,-1,-1,-1,-1,-1,-1,-1,-1,-1,-1,-1,-1,-1,-1,-1,-1,-1,-1,-1,-1,-1,-1,-1,-1,-1,-1,-1,-1,-1,-1,-1,-1,-1,-1,-1,-1,-1,-1,-1,-1,-1,-1,-1],"split_conditions":[5.94E2,1.26E2,2.3E2,3.6E1,2.77E2,8E1,7.7E1,1.3E1,7.4E1,1.89E2,4.09E2,2.5408064E2,7.6E1,4.7058824E-1,2.5224658E2,4.5E0,2.3E1,5.2E1,9.9E1,1.59E2,2.41E2,3.24E2,1.636313E2,2.0234304E1,2.8E1,1.25E2,1.2933333E1,4.9E1,2.3842224E2,8.164966E-1,8E0,1.8E1,2.9E1,4.3E1,6.4E1,8.4E1,1.1E2,1.49E2,1.7177E2,2.1E2,8.038293E0,9.488488E0,1.1596114E1,1.403526E1,1.6132282E1,4.699E1,2.8429783E1,1.2933333E1,3.9E1,3.790579E1,4.4E1,3.9E1,2E1,2E0,2.33E0,5.5E0,9.89E0,1.503E1,2.037E1,2.6E1,3.3E1,3.9E1,4.7E1,5.7E1,6.9E1,7.8E1,8.9E1,1.04E2,1.19E2,1.34E2,4.3036213E0,4.713413E0,5.273914E0,6.00183E0,6.8474855E0,1.8923346E1,2.5344381E1,2.027365E1,2.5E1,2.3067862E1,4.460335E1,1.2E1,1.57E2,1.825943E1,3.872721E1,5.35E1,5.122836E1,-9.8122245E-1,-9.461438E-1,-9.112197E-1,4E0,-8.069226E-1,7E0,9E0,1.2E1,1.4E1,1.7E1,1.9E1,2.2E1,2.5E1,2.8E1,3.1E1,3.5E1,3.7E1,4.002E1,4.5E1,4.9E1,5.4E1,6E1,1.2798027E0,1.4591427E0,1.6345361E0,1.8004073E0,1.9743675E0,9.3E1,2.4865077E0,2.6765473E0,2.9523048E0,3.2741597E0,3.541076E0,3.865093E0,2.4498869E1,3.5804268E1,5.2126648E1,7.803149E1,7.1588356E1,1.22743225E2,4.683505E1,1.0140892E2,-8.754056E-1,-8.407283E-1,-7.708811E-1,-7.3438025E-1,-6.994627E-1,-6.6502136E-1,-6.293315E-1,-5.5189955E-1,-5.2581954E-1,-4.8632774E-1,-4.2260638E-1,-3.862668E-1,-3.5846248E-1,-3.0065033E-1,-2.4598506E-1,-2.1233408E-1,-1.6267918E-1,-1.0345354E-1,-5.0054263E-2,1.1680513E-3,4.7601502E-2,1.2517111E-1,1.9289301E-1,2.4684143E-1,2.700883E-1,3.2464954E-1,3.9891616E-1,4.745566E-1,5.4093134E-1,6.070094E-1,6.743155E-1,7.551734E-1,8.415653E-1,9.2492974E-1,1.0620852E0,1.1511711E0,2.1529126E0,2.3271453E0],"split_indices":[6,6,15,6,6,27,18,6,6,6,6,3,0,19,0,6,6,6,6,6,6,6,3,0,17,15,26,0,0,5,6,6,6,6,6,6,6,6,6,6,0,0,0,0,0,15,0,26,0,0,17,23,11,0,6,6,6,6,6,6,6,6,6,6,6,6,6,6,6,6,0,0,0,0,0,0,0,0,17,0,0,11,15,0,0,7,0,0,0,0,6,0,6,6,6,6,6,6,6,6,6,6,6,6,6,6,6,6,6,0,0,0,0,0,6,0,0,0,0,0,0,0,0,0,0,0,0,0,0,0,0,0,0,0,0,0,0,0,0,0,0,0,0,0,0,0,0,0,0,0,0,0,0,0,0,0,0,0,0,0,0,0,0,0,0,0,0],"split_type":[0,0,0,0,0,0,0,0,0,0,0,0,0,0,0,0,0,0,0,0,0,0,0,0,0,0,0,0,0,0,0,0,0,0,0,0,0,0,0,0,0,0,0,0,0,0,0,0,0,0,0,0,0,0,0,0,0,0,0,0,0,0,0,0,0,0,0,0,0,0,0,0,0,0,0,0,0,0,0,0,0,0,0,0,0,0,0,0,0,0,0,0,0,0,0,0,0,0,0,0,0,0,0,0,0,0,0,0,0,0,0,0,0,0,0,0,0,0,0,0,0,0,0,0,0,0,0,0,0,0,0,0,0,0,0,0,0,0,0,0,0,0,0,0,0,0,0,0,0,0,0,0,0,0,0,0,0,0,0,0,0,0,0,0,0,0,0],"sum_hessian":[1.34534E5,1.34082E5,4.52E2,1.29164E5,4.918E3,3.93E2,5.9E1,1.12061E5,1.7103E4,3.587E3,1.331E3,2.32E2,1.61E2,5.4E1,5E0,7.9168E4,3.2893E4,1.2348E4,4.755E3,2.155E3,1.432E3,8.67E2,4.64E2,3.1E1,2.01E2,8E1,8.1E1,5.1E1,3E0,4.9739E4,2.9429E4,2.0072E4,1.2821E4,7.142E3,5.206E3,2.973E3,1.782E3,1.192E3,9.63E2,9.79E2,4.53E2,4.25E2,4.42E2,1.13E2,3.51E2,1.03E2,9.8E1,4.4E1,3.6E1,2.3E1,5.8E1,1.3E1,3.8E1,3.0059E4,1.968E4,1.594E4,1.3489E4,1.2295E4,7.777E3,7.24E3,5.581E3,4.195E3,2.947E3,3.249E3,1.957E3,1.467E3,1.506E3,8.84E2,8.98E2,8.51E2,3.41E2,5.8E2,3.83E2,4.94E2,4.85E2,2.1E1,8.2E1,1.4E1,3E1,6E0,3E1,4.4E1,1.4E1,3E0,1E1,3.4E1,4E0,2.0275E4,9.784E3,7.655E3,1.2025E4,7.559E3,8.381E3,6.428E3,7.061E3,6.684E3,5.611E3,4.278E3,3.499E3,3.934E3,3.306E3,3.547E3,2.034E3,1.873E3,2.322E3,1.159E3,1.788E3,1.822E3,1.427E3,1.118E3,8.39E2,7.59E2,7.08E2,6.07E2,8.99E2,3.89E2,4.95E2,4.48E2,4.5E2,2.81E2,5.7E2,1.5E1,1.5E1,3.7E1,7E0,1.1E1,3E0,3E0,3.1E1,6.474E3,5.551E3,4.804E3,3.577E3,3.259E3,3.169E3,6.159E3,9.02E2,4.287E3,2.397E3,2.929E3,2.682E3,5.77E2,3.701E3,7.8E2,2.719E3,2.556E3,1.378E3,2.217E3,1.089E3,1.613E3,1.934E3,1.351E3,6.83E2,3.55E2,1.518E3,1.015E3,1.307E3,2.49E2,9.1E2,4.83E2,1.305E3,3.49E2,1.473E3,8.69E2,5.58E2,4.52E2,4.47E2],"tree_param":{"num_deleted":"0","num_feature":"29","num_nodes":"167","size_leaf_vector":"1"}},{"base_weights":[-8.847782E-2,-2.735741E0,7.9206226E2,-8.077229E0,1.3784976E2,7.2006976E2,3.5932026E3,-1.27883E1,2.2626589E1,1.02411934E2,2.3406781E2,4.8213416E2,1.00724274E3,4.953692E1,2.222636E2,-1.6273346E1,-4.540226E0,1.4555888E1,4.3295235E1,8.3201836E1,1.3185925E2,2.002055E2,2.982264E2,1.9064924E1,4.9962772E2,8.715209E2,1.5056991E3,-1.774693E1,-1.3732781E1,-7.4370418E0,1.21054545E-1,9.619207E0,2.1500853E1,3.6622604E1,5.440707E1,7.446938E1,9.390881E1,1.2203386E2,7.639585E0,9.007258E0,1.0967735E1,1.2219816E1,3.0325116E2,4.793442E2,3.003072E1,6.8982074E2,1.0537E3,8.6910114E2,9.1976814E1,-1.842765E1,-1.6714018E1,-1.4840482E1,-1.243755E1,-8.887518E0,-5.1459374E0,-1.7523798E0,2.5300393E0,7.328282E0,1.2855336E1,1.887541E1,2.5839235E1,3.2624508E1,4.054666E1,4.9315964E1,5.924634E1,7.145544E1,4.093276E0,4.484468E0,5.009818E0,5.7120414E0,6.505741E0,2.9159494E2,1.6288334E1,2.111646E1,2.586555E1,2.3714376E1,7.388927E2,8.0200494E2,1.2443481E3,2.8703821E1,5.1738373E1,-9.3216383E-1,-8.9883345E-1,-8.650284E-1,-1.6320305E1,-7.6661223E-1,-1.43772745E1,-1.3036049E1,-1.1908495E1,-9.828867E0,-7.8013945E0,-5.9140553E0,-4.1786504E0,-2.7012796E0,-6.272693E-1,1.1947968E0,3.4487112E0,6.285957E0,8.702573E0,1.1269808E1,1.3931173E1,1.7277775E1,2.0870909E1,1.2168535E0,1.3873771E0,1.5512073E0,1.709912E0,1.8771797E0,4.260277E1,2.3630168E0,2.5421007E0,2.805259E0,3.111965E0,3.3631253E0,3.668042E0,1.3912648E1,1.6356836E1,2.7069223E1,8.030132E2,2.9502338E1,4.3583035E1,3.516204E1,6.492308E1,-8.320319E-1,-7.9937726E-1,-7.333306E-1,-7.004534E-1,-6.6807663E-1,-6.358234E-1,-6.020053E-1,-5.4790014E-1,-5.0261325E-1,-4.6890274E-1,-4.0750453E-1,-3.696949E-1,-3.4235317E-1,-2.8579232E-1,-2.3380224E-1,-2.0163326E-1,-1.7023434E-1,-1.1384648E-1,-4.7753345E-2,1.3508016E-3,2.8200293E-2,8.0322824E-2,1.4128576E-1,2.1417372E-1,2.863742E-1,3.472185E-1,4.0892753E-1,4.632244E-1,5.131707E-1,5.767389E-1,6.401751E-1,7.174868E-1,7.992212E-1,8.794037E-1,1.0091857E0,1.0926856E0,2.0453315E0,2.210369E0,4.6814987E1,3.2967163E1],"categories":[],"categories_nodes":[],"categories_segments":[],"categories_sizes":[],"default_left":[0,0,0,0,0,0,0,0,0,0,0,0,0,0,0,0,0,0,0,0,0,0,0,0,0,0,0,0,0,0,0,0,0,0,0,0,0,0,0,0,0,0,0,0,0,0,0,0,0,0,0,0,0,0,0,0,0,0,0,0,0,0,0,0,0,0,0,0,0,0,0,0,0,0,0,0,0,0,0,0,0,0,0,0,0,0,0,0,0,0,0,0,0,0,0,0,0,0,0,0,0,0,0,0,0,0,0,0,0,0,0,0,0,0,0,0,0,0,0,0,0,0,0,0,0,0,0,0,0,0,0,0,0,0,0,0,0,0,0,0,0,0,0,0,0,0,0,0,0,0,0,0,0,0,0,0,0,0,0,0,0,0,0],"id":8,"left_children":[1,3,5,7,9,11,13,15,17,19,21,23,25,-1,-1,27,29,31,33,35,37,39,41,-1,43,45,47,49,51,53,55,57,59,61,63,65,67,69,-1,-1,-1,-1,71,73,-1,75,77,79,-1,81,83,85,87,89,91,93,95,97,99,101,103,105,107,109,111,113,-1,-1,-1,-1,-1,115,-1,-1,-1,-1,117,119,121,-1,-1,-1,-1,-1,123,-1,125,127,129,131,133,135,137,139,141,143,145,147,149,151,153,155,157,-1,-1,-1,-1,-1,159,-1,-1,-1,-1,-1,-1,-1,-1,-1,161,-1,-1,-1,-1,-1,-1,-1,-1,-1,-1,-1,-1,-1,-1,-1,-1,-1,-1,-1,-1,-1,-1,-1,-1,-1,-1,-1,-1,-1,-1,-1,-1,-1,-1,-1,-1,-1,-1,-1,-1,-1,-1,-1,-1],"loss_changes":[2.8269034E8,1.00893816E8,8.795802E7,1.872336E7,1.6745192E7,2.9510528E7,1.9987648E7,3.22571E6,2.871673E6,2.023212E6,2.814544E6,2.36284E5,1.2082496E7,0E0,0E0,2.95088E5,4.501063E5,4.2441075E5,3.56491E5,1.96722E5,2.72966E5,2.94264E5,4.89E4,0E0,1.27808E5,4.503072E6,7.114312E6,3.4792E4,4.13685E4,6.8271125E4,5.7668066E4,5.3586625E4,5.811025E4,4.61125E4,4.171E4,2.09965E4,1.686E4,4.6197E4,0E0,0E0,0E0,0E0,1.3076E4,1.58084E5,0E0,5.16716E5,2.696672E6,1.87813E5,0E0,2.586E3,4.2965E3,3.332E3,4.071875E3,1.279075E4,5.8974062E3,7.672006E3,6.8523906E3,6.0202656E3,4.95775E3,9.866125E3,4.872125E3,2.717875E3,7.79025E3,3.7625E2,5.18325E3,1.954E3,0E0,0E0,0E0,0E0,0E0,4.2162E4,0E0,0E0,0E0,0E0,3.88308E5,1.7042E4,3.1648E5,0E0,0E0,0E0,0E0,0E0,9.985E2,0E0,6.49625E2,4.78375E2,7.541875E2,5.825E2,7.6928125E2,7.80875E2,2.3673438E2,1.1554941E3,7.057352E2,5.9092725E2,1.709082E3,8.4733594E2,4.6045312E2,2.0423438E2,6.5515625E2,4.33125E2,5.150625E2,0E0,0E0,0E0,0E0,0E0,6.21625E2,0E0,0E0,0E0,0E0,0E0,0E0,0E0,0E0,0E0,2.82514E5,0E0,0E0,0E0,0E0,0E0,0E0,0E0,0E0,0E0,0E0,0E0,0E0,0E0,0E0,0E0,0E0,0E0,0E0,0E0,0E0,0E0,0E0,0E0,0E0,0E0,0E0,0E0,0E0,0E0,0E0,0E0,0E0,0E0,0E0,0E0,0E0,0E0,0E0,0E0,0E0,0E0,0E0,0E0,0E0],"parents":[2147483647,0,0,1,1,2,2,3,3,4,4,5,5,6,6,7,7,8,8,9,9,10,10,11,11,12,12,15,15,16,16,17,17,18,18,19,19,20,20,21,21,22,22,24,24,25,25,26,26,27,27,28,28,29,29,30,30,31,31,32,32,33,33,34,34,35,35,36,36,37,37,42,42,43,43,45,45,46,46,47,47,49,49,50,50,51,51,52,52,53,53,54,54,55,55,56,56,57,57,58,58,59,59,60,60,61,61,62,62,63,63,64,64,65,65,71,71,76,76,77,77,78,78,84,84,86,86,87,87,88,88,89,89,90,90,91,91,92,92,93,93,94,94,95,95,96,96,97,97,98,98,99,99,100,100,101,101,102,102,108,108,118,118],"right_children":[2,4,6,8,10,12,14,16,18,20,22,24,26,-1,-1,28,30,32,34,36,38,40,42,-1,44,46,48,50,52,54,56,58,60,62,64,66,68,70,-1,-1,-1,-1,72,74,-1,76,78,80,-1,82,84,86,88,90,92,94,96,98,100,102,104,106,108,110,112,114,-1,-1,-1,-1,-1,116,-1,-1,-1,-1,118,120,122,-1,-1,-1,-1,-1,124,-1,126,128,130,132,134,136,138,140,142,144,146,148,150,152,154,156,158,-1,-1,-1,-1,-1,160,-1,-1,-1,-1,-1,-1,-1,-1,-1,162,-1,-1,-1,-1,-1,-1,-1,-1,-1,-1,-1,-1,-1,-1,-1,-1,-1,-1,-1,-1,-1,-1,-1,-1,-1,-1,-1,-1,-1,-1,-1,-1,-1,-1,-1,-1,-1,-1,-1,-1,-1,-1,-1,-1],"split_conditions":[1.919677E2,1.27E2,1.27E2,3.7E1,2.78E2,8E1,1.57E2,1.31E1,7.5E1,1.9E2,4.1E2,2.5408064E2,2.3E2,4.953692E1,2.222636E2,5.5E0,2.4E1,5.3E1,1E2,1.6E2,2.42E2,3.25E2,1.3050095E2,1.9064924E1,8.7E1,7.6E1,3.020017E-1,8.164966E-1,8.5E0,1.805E1,3E1,4.4E1,6.5E1,8.5E1,1.11E2,1.5E2,1.7277E2,2.11E2,7.639585E0,9.007258E0,1.0967735E1,1.2219816E1,1.6E2,1.2369317E1,3.003072E1,2.4E2,1.7146206E1,9.9E1,9.1976814E1,2E0,4E0,6.5E0,1.005E1,1.566E1,2.137E1,2.7E1,3.3E1,4.1E1,4.8E1,5.8E1,7E1,7.9E1,9E1,1.05E2,1.2E2,1.35E2,4.093276E0,4.484468E0,5.009818E0,5.7120414E0,6.505741E0,2.3E2,1.6288334E1,2.111646E1,2.586555E1,2.3714376E1,2.3E2,9.3E1,6.2E1,2.8703821E1,5.1738373E1,-9.3216383E-1,-8.9883345E-1,-8.650284E-1,4.39E0,-7.6661223E-1,7.5E0,9.08E0,1.2E1,1.422E1,1.711E1,2E1,2.3E1,2.5E1,2.9E1,3.1E1,3.5E1,3.9E1,4.3E1,4.6E1,5E1,5.5E1,6.1E1,1.2168535E0,1.3873771E0,1.5512073E0,1.709912E0,1.8771797E0,9.4E1,2.3630168E0,2.5421007E0,2.805259E0,3.111965E0,3.3631253E0,3.668042E0,1.3912648E1,1.6356836E1,2.7069223E1,3.284971E-1,2.9502338E1,4.3583035E1,3.516204E1,6.492308E1,-8.320319E-1,-7.9937726E-1,-7.333306E-1,-7.004534E-1,-6.6807663E-1,-6.358234E-1,-6.020053E-1,-5.4790014E-1,-5.0261325E-1,-4.6890274E-1,-4.0750453E-1,-3.696949E-1,-3.4235317E-1,-2.8579232E-1,-2.3380224E-1,-2.0163326E-1,-1.7023434E-1,-1.1384648E-1,-4.7753345E-2,1.3508016E-3,2.8200293E-2,8.0322824E-2,1.4128576E-1,2.1417372E-1,2.863742E-1,3.472185E-1,4.0892753E-1,4.632244E-1,5.131707E-1,5.767389E-1,6.401751E-1,7.174868E-1,7.992212E-1,8.794037E-1,1.0091857E0,1.0926856E0,2.0453315E0,2.210369E0,4.6814987E1,3.2967163E1],"split_indices":[5,2,0,2,2,27,15,2,2,2,2,3,15,0,0,2,2,2,2,2,2,2,5,0,0,0,21,5,2,2,2,2,2,2,2,2,2,2,0,0,0,0,25,16,0,25,16,23,0,0,2,2,2,2,2,2,2,2,2,2,2,2,2,2,2,2,0,0,0,0,0,4,0,0,0,0,4,0,23,0,0,0,0,0,2,0,2,2,2,2,2,2,2,2,2,2,2,2,2,2,2,2,2,0,0,0,0,0,2,0,0,0,0,0,0,0,0,0,21,0,0,0,0,0,0,0,0,0,0,0,0,0,0,0,0,0,0,0,0,0,0,0,0,0,0,0,0,0,0,0,0,0,0,0,0,0,0,0,0,0,0,0,0],"split_type":[0,0,0,0,0,0,0,0,0,0,0,0,0,0,0,0,0,0,0,0,0,0,0,0,0,0,0,0,0,0,0,0,0,0,0,0,0,0,0,0,0,0,0,0,0,0,0,0,0,0,0,0,0,0,0,0,0,0,0,0,0,0,0,0,0,0,0,0,0,0,0,0,0,0,0,0,0,0,0,0,0,0,0,0,0,0,0,0,0,0,0,0,0,0,0,0,0,0,0,0,0,0,0,0,0,0,0,0,0,0,0,0,0,0,0,0,0,0,0,0,0,0,0,0,0,0,0,0,0,0,0,0,0,0,0,0,0,0,0,0,0,0,0,0,0,0,0,0,0,0,0,0,0,0,0,0,0,0,0,0,0,0,0],"sum_hessian":[1.34803E5,1.34355E5,4.48E2,1.29438E5,4.917E3,4.38E2,1E1,1.1222E5,1.7218E4,3.595E3,1.322E3,2.41E2,1.97E2,3E0,7E0,7.8887E4,3.3333E4,1.2384E4,4.834E3,2.178E3,1.417E3,8.68E2,4.54E2,3.9E1,2.02E2,1.57E2,4E1,4.9924E4,2.8963E4,2.0557E4,1.2776E4,7.24E3,5.144E3,3.023E3,1.811E3,1.204E3,9.74E2,9.69E2,4.48E2,4.29E2,4.39E2,4.3E1,4.11E2,1.73E2,2.9E1,8.1E1,7.6E1,1.5E1,2.5E1,3.0082E4,1.9842E4,1.5606E4,1.3357E4,1.2586E4,7.971E3,7.187E3,5.589E3,4.241E3,2.999E3,3.208E3,1.936E3,1.502E3,1.521E3,8.88E2,9.23E2,8.63E2,3.41E2,5.92E2,3.82E2,5.01E2,4.68E2,2.8E2,1.31E2,7.4E1,9.9E1,1.7E1,6.4E1,3.5E1,4.1E1,7E0,8E0,2.0324E4,9.758E3,7.952E3,1.189E4,7.554E3,8.052E3,6.256E3,7.101E3,6.738E3,5.848E3,4.44E3,3.531E3,3.898E3,3.289E3,2.279E3,3.31E3,2.415E3,1.826E3,1.217E3,1.782E3,1.787E3,1.421E3,1.091E3,8.45E2,7.55E2,7.47E2,6.26E2,8.95E2,3.92E2,4.96E2,4.6E2,4.63E2,2.81E2,5.82E2,2.1E2,7E1,1.8E1,4.6E1,1.1E1,2.4E1,5E0,3.6E1,6.033E3,5.857E3,4.487E3,3.565E3,3.079E3,3.177E3,6.227E3,8.74E2,4.491E3,2.247E3,3.141E3,2.707E3,7.72E2,3.668E3,7.94E2,2.737E3,1.464E3,2.434E3,2.191E3,1.098E3,9.01E2,1.378E3,1.898E3,1.412E3,1.312E3,1.103E3,9.53E2,8.73E2,2.62E2,9.55E2,4.91E2,1.291E3,3.56E2,1.431E3,8.49E2,5.72E2,4.48E2,4.47E2,2.1E1,2.5E1],"tree_param":{"num_deleted":"0","num_feature":"29","num_nodes":"163","size_leaf_vector":"1"}},{"base_weights":[1.0655297E-2,-2.5713344E0,7.900114E2,-7.683224E0,1.3148004E2,6.2121936E2,1.9333336E3,-1.2236659E1,2.0784466E1,9.764037E1,2.2263449E2,4.6035556E2,8.55912E2,1.5676201E3,2.3598294E2,-1.5450675E1,-4.4685354E0,1.3277702E1,4.08394E1,7.9063126E1,1.2554811E2,1.9084984E2,2.868534E2,4.1830188E2,5.127299E2,6.528238E2,1.01979706E3,1.3100829E3,1.8374634E2,-1.6858551E1,-1.3042442E1,-7.5566015E0,-8.0416244E-1,8.533631E0,1.9970657E1,3.4484947E1,5.172458E1,7.077411E1,8.921226E1,1.1555522E2,7.2584395E0,8.569483E0,1.0462557E1,1.3342155E1,1.5384643E1,1.8747396E1,2.259813E1,1.995324E1,2.6750717E1,2.4975283E1,7.697441E2,6.459279E2,1.126537E3,2.933321E1,7.5741425E1,-1.7508024E1,-1.5877711E1,-1.4095248E1,-1.1820599E1,-9.233229E0,-6.3426304E0,-2.548352E0,1.7480752E0,6.6042004E0,1.1992792E1,1.703357E1,2.354061E1,3.0742088E1,3.856165E1,4.6853226E1,5.632634E1,6.7905075E1,3.8841145E0,4.256948E0,4.759785E0,5.4097495E0,6.170215E0,2.500434E1,8.23198E2,1.5188895E1,3.430354E1,4.6601604E1,6.1365936E1,-8.8555795E-1,-8.539428E-1,-8.224209E-1,-1.5514363E1,-7.271836E-1,-1.3637591E1,-1.2348857E1,-1.1272855E1,-4.7634745E-1,-8.718432E0,-7.188246E0,-5.252041E0,-3.4070477E0,-1.2701609E0,5.239207E-1,2.762292E0,5.351776E0,7.9821076E0,1.0701332E1,1.2981259E1,1.5910535E1,1.8795286E1,2.2163876E1,1.2936934E0,1.4603478E0,1.6253964E0,1.7845516E0,4.04651E1,2.2470255E0,2.4156163E0,2.664189E0,2.95843E0,3.195703E0,3.4934144E0,2.0133566E1,4.352904E1,-7.9068154E-1,-7.59443E-1,-6.959213E-1,-6.653673E-1,-6.3472575E-1,-6.023895E-1,-5.702751E-1,-5.2022105E-1,-4.440751E-1,-4.1339895E-1,-3.7817192E-1,-3.4420085E-1,-2.8440365E-1,-2.4277483E-1,-1.8208121E-1,-1.2814133E-1,-8.483842E-2,-3.1695396E-2,1.2832522E-2,6.1903514E-2,1.1279799E-1,1.7423992E-1,2.3037432E-1,2.9297888E-1,3.6046E-1,4.280103E-1,4.8820472E-1,5.4783434E-1,6.0830873E-1,6.677385E-1,7.458479E-1,8.220568E-1,8.9711285E-1,9.7801745E-1,1.0404394E0,1.1455363E0,1.9408602E0,2.0983148E0],"categories":[],"categories_nodes":[],"categories_segments":[],"categories_sizes":[],"default_left":[0,0,0,0,0,0,0,0,0,0,0,0,0,0,0,0,0,0,0,0,0,0,0,0,0,0,0,0,0,0,0,0,0,0,0,0,0,0,0,0,0,0,0,0,0,0,0,0,0,0,0,0,0,0,0,0,0,0,0,0,0,0,0,0,0,0,0,0,0,0,0,0,0,0,0,0,0,0,0,0,0,0,0,0,0,0,0,0,0,0,0,0,0,0,0,0,0,0,0,0,0,0,0,0,0,0,0,0,0,0,0,0,0,0,0,0,0,0,0,0,0,0,0,0,0,0,0,0,0,0,0,0,0,0,0,0,0,0,0,0,0,0,0,0,0,0,0,0,0,0,0,0,0,0,0,0,0],"id":9,"left_children":[1,3,5,7,9,11,13,15,17,19,21,23,25,27,-1,29,31,33,35,37,39,41,43,45,47,49,51,53,-1,55,57,59,61,63,65,67,69,71,73,75,-1,-1,-1,-1,-1,-1,-1,-1,-1,-1,77,79,81,-1,-1,83,85,87,89,91,93,95,97,99,101,103,105,107,109,111,113,115,-1,-1,-1,-1,-1,-1,117,-1,-1,-1,-1,-1,-1,-1,119,-1,121,123,125,-1,127,129,131,133,135,137,139,141,143,145,147,149,151,153,-1,-1,-1,-1,155,-1,-1,-1,-1,-1,-1,-1,-1,-1,-1,-1,-1,-1,-1,-1,-1,-1,-1,-1,-1,-1,-1,-1,-1,-1,-1,-1,-1,-1,-1,-1,-1,-1,-1,-1,-1,-1,-1,-1,-1,-1,-1,-1,-1,-1,-1],"loss_changes":[2.7487594E8,9.204387E7,8.351853E7,1.6772014E7,1.5197824E7,1.4103216E7,4.966456E7,2.78486E6,2.685523E6,1.856472E6,2.670176E6,2.92016E5,4.492968E6,2.286324E7,0E0,2.67288E5,3.6940962E5,4.1209275E5,3.34302E5,1.75719E5,2.64946E5,2.84948E5,1.01316E5,2.4546E4,3.463E4,9.06054E5,2.624328E6,6.072576E6,0E0,3.1434E4,3.72805E4,3.59985E4,6.6471164E4,5.0642938E4,5.605825E4,4.566675E4,3.74545E4,1.8415E4,1.54935E4,4.1911E4,0E0,0E0,0E0,0E0,0E0,0E0,0E0,0E0,0E0,0E0,1.50352E5,7.9921E4,1.10448E5,0E0,0E0,2.304E3,3.8565E3,3.00725E3,3.759375E3,1.0398125E3,9.440469E3,9.730715E3,7.524549E3,8.379203E3,3.331E3,5.549875E3,7.221125E3,3.397875E3,6.5585E3,2.615E2,4.74875E3,2.20425E3,0E0,0E0,0E0,0E0,0E0,0E0,2.6701E5,0E0,0E0,0E0,0E0,0E0,0E0,0E0,9.395E2,0E0,5.3125E2,5.57625E2,6.42875E2,0E0,1.2421875E2,6.0703125E2,7.481953E2,1.0406172E3,9.666113E2,5.2404614E2,1.2042852E3,9.395078E2,9.7421875E2,1.7454688E2,3.0259375E2,7.0740625E2,3.9315625E2,1.071375E3,0E0,0E0,0E0,0E0,5.25E2,0E0,0E0,0E0,0E0,0E0,0E0,0E0,0E0,0E0,0E0,0E0,0E0,0E0,0E0,0E0,0E0,0E0,0E0,0E0,0E0,0E0,0E0,0E0,0E0,0E0,0E0,0E0,0E0,0E0,0E0,0E0,0E0,0E0,0E0,0E0,0E0,0E0,0E0,0E0,0E0,0E0,0E0,0E0,0E0,0E0,0E0],"parents":[2147483647,0,0,1,1,2,2,3,3,4,4,5,5,6,6,7,7,8,8,9,9,10,10,11,11,12,12,13,13,15,15,16,16,17,17,18,18,19,19,20,20,21,21,22,22,23,23,24,24,25,25,26,26,27,27,29,29,30,30,31,31,32,32,33,33,34,34,35,35,36,36,37,37,38,38,39,39,50,50,51,51,52,52,55,55,56,56,57,57,58,58,59,59,60,60,61,61,62,62,63,63,64,64,65,65,66,66,67,67,68,68,69,69,70,70,71,71,78,78,86,86,88,88,89,89,90,90,92,92,93,93,94,94,95,95,96,96,97,97,98,98,99,99,100,100,101,101,102,102,103,103,104,104,105,105,110,110],"right_children":[2,4,6,8,10,12,14,16,18,20,22,24,26,28,-1,30,32,34,36,38,40,42,44,46,48,50,52,54,-1,56,58,60,62,64,66,68,70,72,74,76,-1,-1,-1,-1,-1,-1,-1,-1,-1,-1,78,80,82,-1,-1,84,86,88,90,92,94,96,98,100,102,104,106,108,110,112,114,116,-1,-1,-1,-1,-1,-1,118,-1,-1,-1,-1,-1,-1,-1,120,-1,122,124,126,-1,128,130,132,134,136,138,140,142,144,146,148,150,152,154,-1,-1,-1,-1,156,-1,-1,-1,-1,-1,-1,-1,-1,-1,-1,-1,-1,-1,-1,-1,-1,-1,-1,-1,-1,-1,-1,-1,-1,-1,-1,-1,-1,-1,-1,-1,-1,-1,-1,-1,-1,-1,-1,-1,-1,-1,-1,-1,-1,-1,-1],"split_conditions":[5.176667E2,1.27E2,2.3E2,3.6E1,2.78E2,8E1,6.3E1,1.31E1,7.3E1,1.9E2,3.4744534E2,2.8E1,3.1E1,4.6666667E-1,2.3598294E2,5.5E0,2.3E1,5.15E1,1E2,1.6E2,2.42E2,3.25E2,1.3E2,7.8E1,3.8E1,1.25E2,1.2933333E1,2E1,1.8374634E2,2.25E0,8.5E0,1.7E1,2.9E1,4.4E1,6.1E1,8.5E1,1.11E2,1.5E2,1.7277E2,2.11E2,7.2584395E0,8.569483E0,1.0462557E1,1.3342155E1,1.5384643E1,1.8747396E1,2.259813E1,1.995324E1,2.6750717E1,2.4975283E1,2.3E2,4.5E1,4.7E1,2.933321E1,7.5741425E1,2E0,3.33E0,7E0,1.089E1,1.5E1,2E1,2.6E1,3.2E1,4E1,4.8E1,5.605E1,6.8E1,7.9E1,9E1,1.05E2,1.2E2,1.35E2,3.8841145E0,4.256948E0,4.759785E0,5.4097495E0,6.170215E0,2.500434E1,1.8E1,1.5188895E1,3.430354E1,4.6601604E1,6.1365936E1,-8.8555795E-1,-8.539428E-1,-8.224209E-1,4.39E0,-7.271836E-1,7.22E0,9.08E0,1.2E1,-4.7634745E-1,1.566E1,1.8E1,2.1E1,2.451E1,2.8E1,3.1E1,3.4E1,3.8E1,4.102E1,4.6E1,5E1,5.5E1,6E1,6.5E1,1.2936934E0,1.4603478E0,1.6253964E0,1.7845516E0,9.4E1,2.2470255E0,2.4156163E0,2.664189E0,2.95843E0,3.195703E0,3.4934144E0,2.0133566E1,4.352904E1,-7.9068154E-1,-7.59443E-1,-6.959213E-1,-6.653673E-1,-6.3472575E-1,-6.023895E-1,-5.702751E-1,-5.2022105E-1,-4.440751E-1,-4.1339895E-1,-3.7817192E-1,-3.4420085E-1,-2.8440365E-1,-2.4277483E-1,-1.8208121E-1,-1.2814133E-1,-8.483842E-2,-3.1695396E-2,1.2832522E-2,6.1903514E-2,1.1279799E-1,1.7423992E-1,2.3037432E-1,2.9297888E-1,3.6046E-1,4.280103E-1,4.8820472E-1,5.4783434E-1,6.0830873E-1,6.677385E-1,7.458479E-1,8.220568E-1,8.9711285E-1,9.7801745E-1,1.0404394E0,1.1455363E0,1.9408602E0,2.0983148E0],"split_indices":[24,2,15,2,2,27,18,2,2,2,24,17,17,19,0,2,2,2,2,2,2,2,25,15,15,15,13,17,0,8,2,2,2,2,2,2,2,2,2,2,0,0,0,0,0,0,0,0,0,0,4,18,18,0,0,2,2,2,2,2,2,2,2,2,2,2,2,2,2,2,2,2,0,0,0,0,0,0,17,0,0,0,0,0,0,0,2,0,24,2,2,0,2,2,2,2,2,2,2,2,2,2,2,2,2,2,0,0,0,0,2,0,0,0,0,0,0,0,0,0,0,0,0,0,0,0,0,0,0,0,0,0,0,0,0,0,0,0,0,0,0,0,0,0,0,0,0,0,0,0,0,0,0,0,0,0,0],"split_type":[0,0,0,0,0,0,0,0,0,0,0,0,0,0,0,0,0,0,0,0,0,0,0,0,0,0,0,0,0,0,0,0,0,0,0,0,0,0,0,0,0,0,0,0,0,0,0,0,0,0,0,0,0,0,0,0,0,0,0,0,0,0,0,0,0,0,0,0,0,0,0,0,0,0,0,0,0,0,0,0,0,0,0,0,0,0,0,0,0,0,0,0,0,0,0,0,0,0,0,0,0,0,0,0,0,0,0,0,0,0,0,0,0,0,0,0,0,0,0,0,0,0,0,0,0,0,0,0,0,0,0,0,0,0,0,0,0,0,0,0,0,0,0,0,0,0,0,0,0,0,0,0,0,0,0,0,0],"sum_hessian":[1.34756E5,1.34318E5,4.38E2,1.29385E5,4.933E3,3.83E2,5.5E1,1.11544E5,1.7841E4,3.599E3,1.334E3,2.29E2,1.54E2,5E1,5E0,7.8899E4,3.2645E4,1.2983E4,4.858E3,2.163E3,1.436E3,8.95E2,4.39E2,1.32E2,9.7E1,7.1E1,8.3E1,4.6E1,4E0,4.9787E4,2.9112E4,1.7715E4,1.493E4,7.599E3,5.384E3,3.07E3,1.788E3,1.195E3,9.68E2,9.56E2,4.8E2,4.4E2,4.55E2,2.31E2,2.08E2,6.3E1,6.9E1,1.9E1,7.8E1,3.3E1,3.8E1,2E1,6.3E1,1.1E1,3.5E1,2.9943E4,1.9844E4,1.5632E4,1.348E4,7.437E3,1.0278E4,8.869E3,6.061E3,4.88E3,2.719E3,2.957E3,2.427E3,1.605E3,1.465E3,8.74E2,9.14E2,8.52E2,3.43E2,5.85E2,3.83E2,5.01E2,4.55E2,8E0,3E1,3E0,1.7E1,2.5E1,3.8E1,2.0296E4,9.647E3,7.702E3,1.2142E4,7.88E3,7.752E3,6.851E3,6.629E3,4.724E3,2.713E3,5.786E3,4.492E3,5.304E3,3.565E3,2.747E3,3.314E3,2.559E3,2.321E3,1.184E3,1.535E3,1.812E3,1.145E3,1.533E3,8.94E2,8.68E2,7.37E2,5.92E2,8.73E2,3.92E2,4.82E2,4.51E2,4.63E2,2.92E2,5.6E2,4E0,2.6E1,6.301E3,5.841E3,4.167E3,3.585E3,3.17E3,3.681E3,5.74E3,8.89E2,1.978E3,7.35E2,2.58E3,3.206E3,2.133E3,2.359E3,4.148E3,1.156E3,2.133E3,1.432E3,2E3,7.47E2,1.951E3,1.363E3,1.042E3,1.517E3,9.99E2,1.322E3,2.62E2,9.22E2,4.93E2,1.042E3,6.41E2,1.171E3,5.53E2,5.92E2,5.55E2,9.78E2,4.29E2,4.44E2],"tree_param":{"num_deleted":"0","num_feature":"29","num_nodes":"157","size_leaf_vector":"1"}},{"base_weights":[8.588996E-2,-2.4619727E0,7.7309705E2,-7.282104E0,1.2466148E2,7.0713983E2,3.293125E3,-1.1526056E1,2.0434237E1,9.271493E1,2.0996631E2,4.3910162E2,1.01876654E3,2.1553983E2,1.04787796E2,-1.4655544E1,-4.0051417E0,1.318394E1,3.907488E1,7.50471E1,1.1905293E2,1.8019914E2,2.676529E2,4.0276892E2,4.791744E2,7.000213E2,1.2755276E3,-1.6007034E1,-1.2333161E1,-6.6412463E0,1.2153374E-1,8.684578E0,1.9392927E1,3.304569E1,4.913639E1,6.721125E1,8.460217E1,1.1006093E2,6.913269E0,8.132796E0,9.851172E0,1.0966778E1,1.3590566E1,1.81447E1,2.2128761E1,1.866222E1,2.5362984E1,1.6783367E1,7.6190686E2,8.315156E2,1.4260867E3,-1.6630383E1,-1.5070614E1,-1.3359708E1,-1.1135045E1,-7.9719396E0,-4.6419654E0,-1.583044E0,2.2943153E0,6.6125817E0,1.1608926E1,1.7012085E1,2.3288511E1,2.9429195E1,3.6630566E1,4.4592846E1,5.3530804E1,6.452847E1,3.6874893E0,4.0382395E0,4.529932E0,5.128705E0,5.8768344E0,6.5946326E2,9.37486E2,1.867355E1,9.3046136E2,1.2915353E3,1.5930157E2,-8.412822E-1,-8.1121033E-1,-7.807571E-1,-1.4721861E1,-6.9123584E-1,-1.2951062E1,-1.1704626E1,-1.0622564E1,-8.773828E0,-6.969457E0,-5.3358774E0,-3.7680745E0,-2.4355414E0,-5.7036984E-1,1.0691111E0,3.1112552E0,5.6659307E0,7.8645897E0,1.0180395E1,1.2563535E1,1.5805612E1,9.574494E-1,1.0960153E0,1.2527645E0,1.4016354E0,1.5431806E0,1.6951402E0,3.842445E1,2.1376107E0,2.294939E0,2.5308578E0,2.8132262E0,3.0358288E0,3.3117402E0,2.0592955E1,3.4755978E1,7.23478E1,7.472762E2,5.745895E1,3.0798529E1,3.0937607E1,1.3508197E3,-7.503885E-1,-7.202623E-1,-6.609127E-1,-6.295982E-1,-5.9979624E-1,-5.702107E-1,-5.3966093E-1,-4.7328573E-1,-4.517419E-1,-4.18676E-1,-3.6203718E-1,-3.3265206E-1,-3.0822802E-1,-2.581769E-1,-2.0949657E-1,-1.8247221E-1,-1.395419E-1,-8.838945E-2,-6.675022E-2,-1.7040264E-2,2.6132433E-2,7.142744E-2,1.2756462E-1,1.936548E-1,2.5841603E-1,3.1360754E-1,3.6924523E-1,4.186047E-1,4.641122E-1,5.2064294E-1,5.7829905E-1,6.464101E-1,7.6732767E-1,8.521848E-1,1.8460801E0,1.9940628E0,2.769666E1,4.3633797E1,6.1861694E1,9.4862144E1],"categories":[],"categories_nodes":[],"categories_segments":[],"categories_sizes":[],"default_left":[0,0,0,0,0,0,0,0,0,0,0,0,0,0,0,0,0,0,0,0,0,0,0,0,0,0,0,0,0,0,0,0,0,0,0,0,0,0,0,0,0,0,0,0,0,0,0,0,0,0,0,0,0,0,0,0,0,0,0,0,0,0,0,0,0,0,0,0,0,0,0,0,0,0,0,0,0,0,0,0,0,0,0,0,0,0,0,0,0,0,0,0,0,0,0,0,0,0,0,0,0,0,0,0,0,0,0,0,0,0,0,0,0,0,0,0,0,0,0,0,0,0,0,0,0,0,0,0,0,0,0,0,0,0,0,0,0,0,0,0,0,0,0,0,0,0,0,0,0,0,0,0,0,0,0,0,0,0,0,0,0],"id":10,"left_children":[1,3,5,7,9,11,13,15,17,19,21,23,25,-1,-1,27,29,31,33,35,37,39,41,43,45,47,49,51,53,55,57,59,61,63,65,67,69,71,-1,-1,-1,-1,-1,-1,-1,-1,-1,-1,73,75,77,79,81,83,85,87,89,91,93,95,97,99,101,103,105,107,109,111,-1,-1,-1,-1,-1,113,115,-1,117,119,-1,-1,-1,-1,121,-1,123,125,127,129,131,133,135,137,139,141,143,145,147,149,151,153,-1,-1,-1,-1,-1,-1,155,-1,-1,-1,-1,-1,-1,-1,-1,-1,157,-1,-1,-1,159,-1,-1,-1,-1,-1,-1,-1,-1,-1,-1,-1,-1,-1,-1,-1,-1,-1,-1,-1,-1,-1,-1,-1,-1,-1,-1,-1,-1,-1,-1,-1,-1,-1,-1,-1,-1,-1,-1,-1,-1],"loss_changes":[2.6498597E8,8.217153E7,7.113749E7,1.5197973E7,1.3331232E7,3.563656E7,4.368792E6,2.637146E6,2.318252E6,1.65043E6,2.242424E6,1.47608E5,1.5393344E7,0E0,0E0,2.48144E5,3.5817106E5,3.4495575E5,2.897925E5,1.543E5,2.31802E5,2.28536E5,3.1148E4,4.407E4,1.2594E5,1.796032E6,6.100608E6,2.8938E4,3.56525E4,5.3412312E4,4.7540375E4,4.3335875E4,4.773575E4,3.79E4,3.3502E4,1.5908E4,1.47335E4,4.2716E4,0E0,0E0,0E0,0E0,0E0,0E0,0E0,0E0,0E0,0E0,7.66596E5,1.012016E6,1.4828928E7,2.1045E3,3.565E3,2.79675E3,3.79625E3,9.632875E3,4.8490156E3,6.208043E3,5.6444375E3,4.92725E3,3.9199688E3,8.00825E3,4.1985E3,2.137625E3,6.05925E3,1.68125E2,4.38175E3,1.4555E3,0E0,0E0,0E0,0E0,0E0,1.7269E5,1.438068E6,0E0,9.42796E5,2.195296E6,0E0,0E0,0E0,0E0,8.8575E2,0E0,6.3275E2,4.17E2,1.294625E3,6.22375E2,4.1096875E2,6.059844E2,1.6198438E2,9.210703E2,5.767057E2,4.427693E2,1.4335273E3,6.883125E2,3.7577344E2,1.5086719E2,4.9409375E2,9.1E2,0E0,0E0,0E0,0E0,0E0,0E0,4.925E2,0E0,0E0,0E0,0E0,0E0,0E0,0E0,0E0,0E0,2.5601E4,0E0,0E0,0E0,1.934896E6,0E0,0E0,0E0,0E0,0E0,0E0,0E0,0E0,0E0,0E0,0E0,0E0,0E0,0E0,0E0,0E0,0E0,0E0,0E0,0E0,0E0,0E0,0E0,0E0,0E0,0E0,0E0,0E0,0E0,0E0,0E0,0E0,0E0,0E0,0E0,0E0,0E0,0E0,0E0,0E0],"parents":[2147483647,0,0,1,1,2,2,3,3,4,4,5,5,6,6,7,7,8,8,9,9,10,10,11,11,12,12,15,15,16,16,17,17,18,18,19,19,20,20,21,21,22,22,23,23,24,24,25,25,26,26,27,27,28,28,29,29,30,30,31,31,32,32,33,33,34,34,35,35,36,36,37,37,48,48,49,49,50,50,51,51,52,52,53,53,54,54,55,55,56,56,57,57,58,58,59,59,60,60,61,61,62,62,63,63,64,64,65,65,66,66,67,67,73,73,74,74,76,76,77,77,82,82,84,84,85,85,86,86,87,87,88,88,89,89,90,90,91,91,92,92,93,93,94,94,95,95,96,96,97,97,98,98,99,99,106,106,116,116,120,120],"right_children":[2,4,6,8,10,12,14,16,18,20,22,24,26,-1,-1,28,30,32,34,36,38,40,42,44,46,48,50,52,54,56,58,60,62,64,66,68,70,72,-1,-1,-1,-1,-1,-1,-1,-1,-1,-1,74,76,78,80,82,84,86,88,90,92,94,96,98,100,102,104,106,108,110,112,-1,-1,-1,-1,-1,114,116,-1,118,120,-1,-1,-1,-1,122,-1,124,126,128,130,132,134,136,138,140,142,144,146,148,150,152,154,-1,-1,-1,-1,-1,-1,156,-1,-1,-1,-1,-1,-1,-1,-1,-1,158,-1,-1,-1,160,-1,-1,-1,-1,-1,-1,-1,-1,-1,-1,-1,-1,-1,-1,-1,-1,-1,-1,-1,-1,-1,-1,-1,-1,-1,-1,-1,-1,-1,-1,-1,-1,-1,-1,-1,-1,-1,-1,-1,-1],"split_conditions":[5.95E2,1.27E2,8E1,3.7E1,2.78E2,8E1,5.854611E-1,1.4E1,7.5E1,1.9E2,4.1E2,2.8E1,4.4897144E1,2.1553983E2,1.04787796E2,6E0,2.4E1,5.3E1,1E2,1.6E2,2.42E2,3.25E2,1.3050095E2,1.2933333E1,8.633333E0,2.5408064E2,2.9E1,8.164966E-1,9E0,1.805E1,3E1,4.4E1,6.5E1,8.5E1,1.11E2,1.5E2,1.7277E2,2.11E2,6.913269E0,8.132796E0,9.851172E0,1.0966778E1,1.3590566E1,1.81447E1,2.2128761E1,1.866222E1,2.5362984E1,1.6783367E1,3.6E1,1.9E1,4.7058824E-1,2E0,2.4E0,6.5E0,1.089E1,1.603E1,2.137E1,2.7E1,3.233E1,4.1E1,4.8E1,6E1,7E1,7.9E1,9E1,1.05E2,1.2E2,1.35E2,3.6874893E0,4.0382395E0,4.529932E0,5.128705E0,5.8768344E0,2.4E2,3.7E1,1.867355E1,1.8E1,1.2933333E1,1.5930157E2,-8.412822E-1,-8.1121033E-1,-7.807571E-1,5E0,-6.9123584E-1,8E0,1E1,1.3E1,1.422E1,1.8E1,2E1,2.3E1,2.6E1,2.8E1,3.1E1,3.5E1,3.9E1,4.3E1,4.6E1,5E1,5.605E1,9.574494E-1,1.0960153E0,1.2527645E0,1.4016354E0,1.5431806E0,1.6951402E0,9.4E1,2.1376107E0,2.294939E0,2.5308578E0,2.8132262E0,3.0358288E0,3.3117402E0,2.0592955E1,3.4755978E1,7.23478E1,4.1E1,5.745895E1,3.0798529E1,3.0937607E1,4.4E1,-7.503885E-1,-7.202623E-1,-6.609127E-1,-6.295982E-1,-5.9979624E-1,-5.702107E-1,-5.3966093E-1,-4.7328573E-1,-4.517419E-1,-4.18676E-1,-3.6203718E-1,-3.3265206E-1,-3.0822802E-1,-2.581769E-1,-2.0949657E-1,-1.8247221E-1,-1.395419E-1,-8.838945E-2,-6.675022E-2,-1.7040264E-2,2.6132433E-2,7.142744E-2,1.2756462E-1,1.936548E-1,2.5841603E-1,3.1360754E-1,3.6924523E-1,4.186047E-1,4.641122E-1,5.2064294E-1,5.7829905E-1,6.464101E-1,7.6732767E-1,8.521848E-1,1.8460801E0,1.9940628E0,2.769666E1,4.3633797E1,6.1861694E1,9.4862144E1],"split_indices":[2,2,18,2,2,27,21,2,2,2,2,17,22,0,0,2,2,2,2,2,2,2,5,13,13,3,17,5,2,2,2,2,2,2,2,2,2,2,0,0,0,0,0,0,0,0,0,0,17,17,19,2,3,2,2,2,2,2,2,2,2,2,2,2,2,2,2,2,0,0,0,0,0,25,17,0,12,13,0,0,0,0,2,0,2,2,2,2,2,2,2,2,2,2,2,2,2,2,2,2,0,0,0,0,0,0,2,0,0,0,0,0,0,0,0,0,17,0,0,0,17,0,0,0,0,0,0,0,0,0,0,0,0,0,0,0,0,0,0,0,0,0,0,0,0,0,0,0,0,0,0,0,0,0,0,0,0,0,0,0,0],"split_type":[0,0,0,0,0,0,0,0,0,0,0,0,0,0,0,0,0,0,0,0,0,0,0,0,0,0,0,0,0,0,0,0,0,0,0,0,0,0,0,0,0,0,0,0,0,0,0,0,0,0,0,0,0,0,0,0,0,0,0,0,0,0,0,0,0,0,0,0,0,0,0,0,0,0,0,0,0,0,0,0,0,0,0,0,0,0,0,0,0,0,0,0,0,0,0,0,0,0,0,0,0,0,0,0,0,0,0,0,0,0,0,0,0,0,0,0,0,0,0,0,0,0,0,0,0,0,0,0,0,0,0,0,0,0,0,0,0,0,0,0,0,0,0,0,0,0,0,0,0,0,0,0,0,0,0,0,0,0,0,0,0],"sum_hessian":[1.34541E5,1.341E5,4.41E2,1.29202E5,4.898E3,4.31E2,1E1,1.12046E5,1.7156E4,3.565E3,1.333E3,2.33E2,1.98E2,4E0,6E0,7.9122E4,3.2924E4,1.2353E4,4.803E3,2.136E3,1.429E3,8.82E2,4.51E2,1.28E2,1.05E2,9E1,1.08E2,5.0012E4,2.911E4,2.009E4,1.2834E4,7.164E3,5.189E3,3.006E3,1.797E3,1.178E3,9.58E2,9.78E2,4.51E2,4.37E2,4.45E2,4E1,4.11E2,6.9E1,5.9E1,2.5E1,8E1,1.4E1,7.6E1,2.9E1,7.9E1,3.0015E4,1.9997E4,1.5672E4,1.3438E4,1.206E4,8.03E3,7.192E3,5.642E3,4.195E3,2.969E3,3.224E3,1.965E3,1.501E3,1.505E3,8.89E2,9.08E2,8.43E2,3.35E2,5.93E2,3.65E2,4.96E2,4.82E2,5.1E1,2.5E1,6E0,2.3E1,7.5E1,4E0,2.0243E4,9.772E3,7.79E3,1.2207E4,7.315E3,8.357E3,6.354E3,7.084E3,6.696E3,5.364E3,4.473E3,3.557E3,3.904E3,3.288E3,2.258E3,3.384E3,2.392E3,1.803E3,1.194E3,1.775E3,2.066E3,1.158E3,1.115E3,8.5E2,7.71E2,7.3E2,6.05E2,9E2,3.83E2,5.06E2,4.49E2,4.59E2,2.72E2,5.71E2,8E0,4.3E1,5E0,2E1,1.2E1,1.1E1,7E0,6.8E1,6.39E3,5.817E3,4.771E3,3.586E3,3.206E3,3.148E3,6.166E3,9.18E2,4.04E3,2.656E3,2.876E3,2.488E3,7.64E2,3.709E3,7.73E2,2.784E3,2.546E3,1.358E3,7.58E2,2.53E3,8.97E2,1.361E3,1.953E3,1.431E3,1.319E3,1.073E3,9.35E2,8.68E2,2.54E2,9.4E2,4.84E2,1.291E3,1.517E3,5.49E2,4.56E2,4.44E2,1E1,1E1,5.9E1,9E0],"tree_param":{"num_deleted":"0","num_feature":"29","num_nodes":"161","size_leaf_vector":"1"}},{"base_weights":[4.6539016E-2,-2.3049364E0,6.991612E2,-6.9046535E0,1.1884082E2,6.272907E2,3.2701514E3,-1.0958056E1,1.945041E1,8.771395E1,2.0099303E2,4.1071036E2,8.9371014E2,4.0188194E1,2.0014812E2,-1.3919405E1,-3.8189282E0,1.2534742E1,3.716928E1,7.124497E1,1.1302609E2,1.7252379E2,2.560546E2,1.8760826E1,4.5806833E2,7.425348E2,1.3844846E3,-1.5208252E1,-1.1713524E1,-6.3124614E0,1.020108E-1,8.254006E0,1.8462717E1,3.1388184E1,4.6623817E1,6.370684E1,8.048415E1,1.0450516E2,6.5700946E0,7.733726E0,9.445407E0,2.3457368E2,2.6731552E2,1.938557E1,2.4499325E1,5.6432153E2,8.623439E2,5.4003284E2,1.5258275E3,-1.5800236E1,-1.431994E1,-1.270696E1,-1.0604198E1,-7.5491343E0,-4.371673E0,-1.5077204E0,2.1733577E0,6.286043E0,1.1039199E1,1.5619367E1,2.140495E1,2.7985304E1,3.475875E1,4.227331E1,5.092796E1,6.1185062E1,3.507752E0,3.8352344E0,4.291321E0,4.8852763E0,5.581146E0,1.0954268E1,1.3388005E1,1.1763457E1,1.3904813E1,1.7837263E1,2.9590025E1,5.650879E2,9.4031396E2,1.4435035E1,3.16536E1,1.0918611E3,8.209084E1,-7.992201E-1,-7.707087E-1,-7.422963E-1,-1.3990651E1,-6.566621E-1,-1.2326934E1,